svm_type one_vs_rest_wsvm
kernel_type rbf
gamma            0.001953125
nr_class 4
openset_dim 4
total_sv 176
label 0 1 3 5
rho   0.91937663583350792695    0.7851835239597418914  0.022455567415983191532   0.62776485313736218874
Neg_labels 0
Rejected_ID -99999
MR_pos_one_vs_all   1.26177810477959107   3.73141177557023562    1.59745622659820241  0.996637002750012102   6.23390563816146503   2.23350089767649962  -1 5.000000 4 37 1  -1.04487268242318887 0
  1.42908446193048233   3.95366623273185036    1.80785074505331589    1.1296742305299694   7.42594616642698568   2.10498114711827844  -1 5.000000 4 33 1  -1.08887253222953451 0
  1.77140502877283446   2.73202151868025789    2.53150430930134585    1.2395300945893668   5.20822519755689317   1.43310653733506244  -1 5.000000 4 30 1  -1.29510759297517541 0
  1.15843759986281025   8.96164082752839697    1.32808890194389573    1.0104577116875868   20.6591345233850134    3.8874332431843257  -1 5.000000 4 19 1  -1.02371931439633901 0
MR_comp_one_vs_all   1.43163417613922794   5.78027073695206184    1.86524147688914499    1.0988263126703226   18.8733153389688759   1.77030527982953423  1 5.000000 1 12 1 -0.838760948005410234 0
  1.71458437473473579   2.77374949932311132    2.92320848953819379     1.005675643254899     7.820507649490124  0.983783486932184204  1 5.000000 1 13 1 -0.958116960367455861 0
   1.3216530543828422   6.28705308407260421    1.65711505459889819   1.05410109654836148   17.3357442101288832   2.28008881550364029  1 5.000000 1 14 1 -0.999499850665706013 0
   1.2645314788232227   5.41976953818475593    1.79235673986677901  0.892143748712490692   18.6839658026987685   1.57214491597884098  1 5.000000 1 8 1 -0.999488410684385875 0
nr_sv 49 49 48 30
SV
1 0 0 0 1:0.00159700238146 2:0.125926464796 3:0.167461916804 5:0.00118638866115 6:0.0451007820666 7:0.0969661548734 8:0.0505209937692 9:0.0370626747608 10:0.0942368507385 11:0.0030724296812 12:0.622330248356 13:0.240833222866 14:0.0206635221839 15:0.0204655528069 16:0.202963978052 19:0.0745792090893 20:0.351314783096 21:0.830502033234 22:0.2159422189 24:0.759374976158 25:0.431845933199 26:0.0362590141594 27:0.0272136796266 28:0.131353586912 29:0.072911195457 30:0.475497126579 32:0.712790310383 33:0.33232486248 34:0.299459248781 35:0.0341125354171 36:0.141975551844 37:0.209479153156 38:0.652281105518 39:0.491272985935 40:0.0524472557008 41:0.271189033985 43:0.130531430244 44:0.124283201993 47:0.667072296143 48:0.468222230673 49:0.167103663087 50:0.318818897009 51:0.0192912686616 52:0.215777605772 53:0.0551809333265 54:0.676751434803 55:0.0282780602574 56:0.0899201706052 57:0.0735490843654 60:0.0214801300317 61:0.064121954143 62:0.0454857796431 63:0.0445813313127 64:0.974310100079 65:0.462008237839 66:0.0269727036357 67:0.00792840123177 68:0.0736396610737 69:0.166697204113 70:0.343076556921 73:0.75052767992 74:1.75948917866 78:0.192886024714 79:0.00284762517549 80:0.157617539167 81:0.151001766324 82:0.886524558067 83:0.356132626534 85:0.0368406549096 86:0.334510445595 87:0.458113759756 88:0.330694198608 89:0.30763027072 90:0.0411697439849 91:0.458771914244 92:0.581361234188 93:0.0240011252463 94:0.174242794514 95:0.22585016489 96:0.0121667338535 97:1.66754567623 98:1.26618051529 100:0.153951913118 101:0.0296957828104 102:1.43040418625 103:0.422062724829 104:0.308595567942 106:0.0262252446264 107:0.252082854509 108:0.0913008227944 109:0.118670418859 110:0.247238919139 111:0.0220176242292 112:0.824605166912 114:0.335416913033 115:0.133097067475 116:0.0202247370034 117:0.109524786472 118:0.0108013646677 119:0.209943413734 120:0.174709916115 121:0.00804413948208 122:0.169117704034 123:0.0193433929235 124:0.125118136406 125:0.090639129281 126:0.0175208412111 128:0.0559384338558 129:0.125377431512 131:0.0203740354627 132:0.136490210891 133:0.248735263944 134:0.0306049212813 135:0.389777868986 136:0.243713378906 137:0.0158341210335 138:0.274680495262 139:0.0458204112947 140:0.0507655143738 141:0.0559155233204 142:0.178852289915 143:0.824734628201 144:0.151766419411 145:0.263714849949 146:0.390760838985 147:0.388704329729 148:0.241606459022 149:0.0947634801269 150:0.0229568276554 151:0.0370448827744 152:0.0657599717379 153:0.0386278778315 154:0.209840923548 156:0.414309084415 157:0.209445282817 158:0.406390815973 159:0.0498305186629 160:0.249428212643 161:0.516577363014 162:0.0269852448255 163:0.287795245647 164:0.0790911987424 165:0.0345484316349 166:0.12124183774 168:0.134494110942 169:0.0518649816513 170:0.0974021032453 171:0.537697374821 172:0.00127677584533 173:0.010301229544 174:0.320329546928 175:0.0212899874896 176:1.34399521351 177:0.0688178092241 178:0.0063868262805 180:0.170429870486 181:0.490680068731 182:0.135250627995 183:0.279680222273 184:0.209658965468 185:0.0183264743537 186:0.396433889866 187:0.324563324451 188:0.0947086364031 189:0.0528817698359 190:0.695079863071 191:0.294124364853 192:0.357717573643 193:0.0639895051718 194:0.0798823609948 196:0.00660258159041 197:0.0481259897351 198:0.06480884552 199:0.198197007179 201:0.226449966431 202:0.849035382271 203:0.611055374146 204:0.165507018566 205:0.0743932053447 206:0.778334438801 208:0.0558561645448 209:0.710533976555 210:0.146990522742 212:0.234150886536 213:0.0257625766098 214:0.0271886978298 215:0.0877072364092 216:0.0427099615335 217:0.0676457434893 218:0.0759769156575 219:0.916125357151 220:0.204921841621 221:0.00363880745135 222:0.114886887372 223:0.47535431385 224:0.0133778527379 225:0.0145124616101 227:0.0142928240821 228:0.182654887438 229:0.0711138397455 232:0.253542512655 233:0.00193983071949 234:0.0903448835015 235:0.103251568973 237:0.0963838919997 238:0.00567145971581 239:0.0591556094587 240:0.0216665994376 241:0.335525691509 242:0.308748990297 243:0.0190246216953 244:0.0370867811143 245:0.420550733805 246:0.0245495662093 247:0.19672216475 248:0.0424975715578 249:0.00688147637993 250:0.389979749918 251:0.00967583339661 252:0.0792867317796 253:0.0276905316859 254:0.0485193878412 255:0.0476389490068 256:0.0881298184395 257:0.228598788381 258:0.198490798473 259:0.0729824453592 261:0.00860509183258 262:0.168744727969 263:0.193296387792 264:0.235233068466 265:0.162261515856 266:0.0171293336898 267:0.015268583782 268:0.25818836689 269:0.0352625735104 270:0.313145548105 271:0.0728583782911 272:0.11405249685 273:0.0988807827234 275:0.721963882446 276:0.153985157609 277:0.269152075052 278:0.0166605077684 279:0.0147352349013 280:0.101150639355 281:0.0441219359636 282:0.0345914363861 283:0.35117700696 284:0.25912129879 285:0.687335431576 286:0.0341400802135 287:0.0275590270758 288:0.287298709154 289:0.0794795826077 290:0.0372484475374 291:0.839564859867 292:0.399138063192 293:0.0410409457982 295:0.180478721857 296:0.198672965169 297:0.859028697014 298:0.22650359571 299:0.246921733022 300:0.00981866847724 301:0.111074581742 302:0.280624747276 304:0.0476840361953 305:0.0600546114147 306:0.228520929813 307:0.00264188554138 308:0.937707602978 309:0.0131913945079 310:0.204169899225 311:0.00163544807583 312:0.0312557928264 313:1.20677483082 315:0.00675530638546 316:0.364347249269 317:0.180354595184 318:0.101458437741 319:0.348385930061 320:0.169854134321 321:0.0665266141295 322:0.0246078763157 324:0.0168921407312 325:0.00667865388095 326:0.0468007810414 327:0.471848845482 328:0.0160787478089 329:0.376752257347 330:0.0420944392681 331:0.140054062009 333:0.441529214382 334:0.106469266117 335:0.0216269213706 336:0.264792889357 337:0.867093145847 338:0.114373683929 339:0.509267866611 340:0.346598446369 342:0.0871975570917 343:0.952239990234 344:0.613561630249 345:0.0332321077585 346:0.333713829517 347:0.0609363131225 348:0.263238281012 349:0.44872367382 350:0.0241542682052 352:0.154590472579 353:0.134271532297 354:0.100498370826 355:0.0969668850303 356:0.0465130358934 357:0.0874689817429 358:0.0524046756327 359:0.0681475400925 360:0.711285531521 361:0.0506250150502 362:0.185141205788 363:0.339731603861 364:0.019620295614 365:0.129892662168 366:0.071511618793 367:0.0274810548872 368:0.0332740657032 369:0.0143592441455 370:0.0613740906119 371:0.139391124249 372:0.377923130989 373:0.0230838619173 374:0.0147716524079 375:0.160445794463 376:0.0896817818284 377:0.0898969918489 378:0.624457001686 379:1.1740925312 380:0.0548290126026 381:0.130355164409 382:0.325060665607 383:0.0573231615126 384:0.135416314006 385:0.0596481412649 386:0.00382158579305 387:0.00927751511335 388:0.0701238512993 389:0.0403729900718 391:0.0151694631204 392:0.0230102539062 393:0.332837074995 396:0.292271465063 397:0.227103129029 398:0.23762601614 399:0.0215536765754 400:0.0558043494821 401:0.408707350492 402:0.425026774406 403:0.408554017544 404:1.37151038647 405:1.02551031113 406:0.220402285457 407:0.205647990108 408:0.0776511281729 409:0.000895702862181 410:0.215218663216 411:0.180473789573 412:0.168612539768 413:0.192452251911 414:0.142088502645 415:0.186894640326 417:0.00272479094565 418:0.0291478876024 419:0.416905909777 420:0.569392621517 421:0.0907317176461 423:0.160769209266 426:0.0160320717841 427:0.103904664516 428:0.202155560255 429:0.0125484308228 430:0.967927277088 431:0.045138631016 432:0.11828134954 433:0.0391279347241 434:0.197004511952 436:0.126319304109 437:0.0969643071294 438:0.00146180996671 439:0.115468278527 440:0.039886880666 441:0.229173317552 442:0.00882473215461 443:0.322581171989 444:0.167469918728 445:0.13604170084 446:1.83734512329 447:0.118287831545 448:0.00443472154438 449:0.000931792950723 450:0.00664319423959 451:0.0108188744634 452:0.561469495296 453:0.367991894484 454:0.703544199467 455:0.0760615617037 456:0.406358361244 457:0.0926894024014 458:0.0267928279936 459:0.0165447387844 460:0.0788530036807 461:0.00276570371352 462:0.0826119184494 463:0.320804029703 464:0.208668470383 465:0.043175585568 468:0.0534520372748 469:0.096086345613 470:0.110708974302 471:1.48405277729 472:0.281385093927 473:0.0942301154137 474:0.0404495634139 475:0.493784755468 476:0.0666717141867 477:0.0247830972075 478:0.0900635719299 479:0.473379164934 480:0.31035733223 481:0.355261802673 482:0.00773318298161 483:0.0503507331014 484:0.103247702122 485:0.0616934336722 486:0.223106399179 487:0.238189637661 488:0.891097247601 491:0.142702177167 492:0.163017973304 494:0.0564137026668 495:0.847765862942 496:0.0959808453918 497:0.0369268469512 498:0.0406865403056 499:0.634542286396 500:0.0116588724777 501:0.137260660529 502:0.038269110024 503:0.370851874352 504:0.157838195562 505:0.853336632252 506:0.104216262698 507:0.0994927361608 508:0.0482595972717 509:0.00466399034485 510:0.0118097309023 511:0.0322752781212 512:0.658026397228 
0.1459142093213057 0 0 0 1:0.169402658939 5:0.242468997836 7:0.0765504837036 8:0.0291119813919 9:0.046535525471 10:0.000343743624398 12:2.0382399559 13:0.208248510957 14:0.0566911585629 15:0.007986465469 16:0.0476573519409 19:0.0130912112072 21:0.284525871277 23:0.0353209525347 24:1.31135451794 25:0.219709277153 26:0.0462271347642 27:0.00314357201569 28:0.00981811620295 30:0.00199230830185 31:0.00408005760983 32:6.36823225021 33:0.0115024363622 36:0.0193287879229 37:0.267195880413 38:0.118281699717 39:1.13789308071 41:0.00251749577001 43:0.266643375158 44:0.0859906673431 45:0.0933737158775 48:0.512460649014 50:1.47988533974 51:0.0274455025792 52:0.0067828623578 54:0.269413679838 55:0.306944459677 57:0.0926845818758 58:0.00042864884017 60:0.113223314285 61:0.00149194558617 62:0.0795100480318 63:0.045926515013 65:0.312378138304 67:1.66176712513 68:0.023387523368 69:0.0167077314109 71:8.78604888916 72:7.36710500717 73:0.605641245842 74:1.90947282314 76:0.496093183756 77:0.0219379253685 82:1.13404750824 83:0.065634675324 86:0.00284733297303 87:0.0146347936243 93:0.0258162040263 95:0.491064012051 97:1.83888173103 98:0.684496283531 99:0.0676139295101 100:0.0763984769583 102:0.645443320274 103:0.0104533722624 104:0.0958113744855 109:0.0493765100837 112:0.675523221493 113:6.23528146744 114:0.336151659489 116:0.0104071991518 121:0.0358732119203 122:0.191300973296 123:0.0117579940706 125:0.00109252182301 126:0.0345035083592 127:0.039179045707 128:0.0204754117876 129:0.0140958121046 133:0.0277109388262 135:0.0879297852516 137:0.0446882173419 138:0.314264833927 139:0.00257030315697 140:0.145243853331 142:0.0294218324125 143:2.42252612114 144:0.0352019630373 147:0.493744313717 148:0.0376575700939 149:0.0971263721585 150:0.000545638264157 151:0.141057386994 152:0.0514000952244 154:0.11984886229 155:0.00887326337397 160:0.021719776094 161:0.013497389853 162:0.0245679933578 163:0.143155768514 164:0.0278832037002 166:0.154015883803 167:0.359301418066 170:0.0235523059964 171:0.462011963129 174:0.0370478630066 175:0.0785056501627 176:2.0296857357 178:0.387716710567 180:0.084617562592 183:0.134796649218 184:0.0437368266284 185:0.0836897268891 186:0.442765295506 189:0.0862997993827 190:0.249017745256 192:0.0279866624624 193:0.142355278134 194:0.00204425142147 195:0.126406759024 199:0.0301618333906 201:0.0122915580869 202:0.239578202367 204:0.0501582622528 205:0.0209906492382 206:0.342580288649 208:0.0340604707599 209:0.187135130167 210:0.497727066278 212:0.198763996363 214:0.0133638633415 215:0.094410404563 216:0.200944676995 218:0.0745339170098 219:0.403598576784 220:0.122255787253 222:0.0615782402456 223:0.0323773175478 224:0.011884639971 225:0.102275632322 226:0.00148897990584 230:7.61533156037e-05 235:0.0136448955163 240:0.0152842821553 242:0.0592459365726 245:0.186925843358 246:0.0588455758989 248:0.077936373651 250:0.38870704174 255:0.0371010452509 256:0.0784902945161 258:0.313448101282 260:0.173097491264 261:0.060467839241 262:0.588879406452 265:0.00478838896379 268:0.14827901125 270:0.262000322342 273:0.0405876375735 275:0.8396884799 276:0.00944677367806 277:0.629180967808 278:0.0560154914856 280:0.030226867646 282:0.0286745596677 283:0.0737904980779 284:3.59190273285 285:0.462989300489 287:0.02343605645 288:0.746952295303 289:0.0489015653729 293:0.0209209565073 294:0.0131652895361 296:0.777905166149 297:0.827642083168 298:0.0294262263924 299:0.225735634565 301:0.287309676409 303:0.0717190429568 304:0.00405816175044 305:0.49026504159 306:0.656839311123 310:0.0294571593404 311:0.045053768903 312:0.0571931600571 313:0.357931882143 315:7.69870424271 316:0.0441905520856 317:0.000233806509641 318:7.00938558578 319:0.0224489811808 320:0.000143479323015 322:0.740023314953 324:0.0318578742445 326:0.000187547833775 328:0.00231837411411 329:0.431005269289 330:0.0593191534281 333:0.0429319776595 335:0.00636378349736 337:0.11984308064 338:0.000251258694334 339:0.273177504539 340:0.000994142028503 342:0.0374647080898 343:0.263571441174 344:0.393648833036 345:0.0308670382947 346:0.143343746662 347:0.00815436895937 348:0.0108887506649 349:0.00611882191151 351:0.0215454436839 352:0.0436455309391 355:0.00940502434969 358:0.00176941859536 360:0.124887518585 363:0.0147480610758 365:0.0313442572951 366:0.324605435133 368:0.0851456448436 369:0.02471935004 371:0.012207894586 373:0.0522064082325 376:0.120598986745 377:0.111785419285 379:1.50890910625 380:0.0682288780808 383:0.00943027436733 384:0.0193864014 386:0.193904951215 388:0.0170638915151 391:0.00662717130035 392:0.0234551690519 396:0.0774727463722 397:0.0042558349669 398:0.117624163628 399:0.0222623441368 400:0.073677636683 401:0.0820639058948 402:0.013685866259 403:0.00436627725139 404:0.777706980705 405:0.73720151186 406:0.00987716484815 407:0.0315710492432 409:2.76458764076 411:0.111200012267 414:0.50803232193 417:0.123451404274 418:0.053128503263 419:0.0730488151312 420:0.292078197002 421:0.0906292423606 422:0.118072718382 424:6.24581193924 426:0.19103038311 428:0.410860240459 429:0.204646512866 430:1.39245820045 436:0.0059395362623 437:0.0238460935652 440:0.00197731191292 442:0.0816626027226 443:0.00630208291113 444:0.00636956980452 445:0.00316680967808 446:2.92500448227 447:0.0510434880853 448:0.00204869685695 449:0.0677570924163 452:0.269309967756 453:0.0184806212783 454:0.0264734383672 455:0.00162419246044 460:0.0929527059197 462:0.0505895391107 463:0.197794348001 464:0.181700959802 465:0.111614860594 466:0.0130452867597 467:0.0147503493354 468:0.0748921856284 469:0.00726617034525 470:0.176944702864 471:1.86514043808 472:0.0502672754228 473:0.0210603307933 474:0.0342201255262 475:0.0890243873 478:0.0132458442822 479:0.0192409828305 480:0.141456454992 481:0.403637766838 482:0.167919754982 485:0.0176027007401 487:0.069671407342 488:0.406857430935 490:0.0276838503778 491:0.113205254078 494:0.0427055545151 495:0.539236605167 496:0.0556268468499 497:0.0695259347558 498:0.121119730175 499:0.975854337215 501:0.010908793658 502:0.000995335984044 504:0.157552108169 511:0.0154626946896 512:0.0942937582731 
1 0 0 0 1:0.0799593925476 3:0.342549055815 4:0.00108518765774 5:0.0608523786068 6:0.136872336268 7:0.161706253886 8:0.668141901493 9:0.0187752768397 10:0.0655538961291 12:0.945614099503 13:0.039886072278 14:0.0370985344052 15:0.114562891424 16:0.0580752305686 17:0.0026259762235 18:0.0342294238508 19:0.00859534461051 20:0.161948159337 21:0.479698002338 22:0.368857175112 23:0.259829819202 25:0.250739425421 26:0.322814941406 27:0.072455778718 28:0.0951026901603 29:0.0462059639394 30:0.180810928345 31:0.0385484062135 32:0.920980334282 33:0.170695081353 34:0.218064725399 35:0.0356878936291 37:0.177719771862 38:0.965542495251 39:1.25578463078 40:0.0144145740196 41:0.0478933900595 43:0.0613516904414 44:0.000325667613652 45:0.008346141316 46:0.0146987354383 47:0.298550903797 48:0.301196813583 50:0.403609335423 51:0.100586362183 52:0.394863814116 54:0.262067049742 55:0.0129764638841 56:0.0370665676892 57:0.165271148086 60:0.192691117525 61:0.0213853474706 62:0.00160985160619 63:0.0313204191625 64:0.216986984015 65:0.395494073629 66:0.148402839899 67:0.174306944013 68:0.0106738014147 69:0.221409544349 70:0.11418505013 71:0.181161344051 72:0.0534195490181 73:0.542656064034 74:1.25729691982 75:0.0344734825194 76:0.283160328865 78:0.978635013103 80:0.0444456078112 81:0.00434666825458 83:0.474848568439 84:0.00238802726381 85:0.0598018690944 86:0.502627789974 87:0.387887954712 88:0.0359521731734 89:0.387034475803 90:0.02360878326 91:0.521494865417 92:0.30824008584 93:0.0298394765705 94:0.0940803587437 95:0.139778122306 97:1.10190796852 98:0.00544206704944 99:0.0110220517963 100:0.040632031858 101:0.0609372965991 102:0.692955136299 103:0.609945893288 104:0.276030689478 105:0.0471425540745 107:0.179984092712 108:0.0344163402915 109:0.0748590007424 110:0.0702456757426 111:0.0123480204493 112:0.334242045879 113:0.0663533210754 114:0.760087907314 115:0.0544127859175 116:0.0286566857249 117:0.4372202456 120:0.494868010283 121:0.0135589009151 122:0.127859011292 124:0.042612683028 125:0.105837151408 128:0.119199536741 129:0.194467812777 130:0.0318688154221 131:0.0210385564715 132:0.191752851009 133:0.254388004541 134:0.0690796971321 135:0.871912419796 136:0.0651731342077 137:0.760064721107 138:0.197388082743 140:0.0947904363275 141:0.00619457662106 142:0.35250094533 143:2.33974027634 144:0.0200138129294 145:0.0998890027404 146:0.243661239743 147:0.367462098598 148:0.0512654036283 149:0.0380337871611 150:0.0264083985239 151:0.0287241954356 152:0.040056694299 153:0.000431706546806 154:0.0119467908517 156:0.407304108143 157:0.0957198217511 158:0.171213850379 159:0.13441760838 160:0.154646292329 161:0.214463174343 162:0.0565959848464 163:0.17687959969 164:0.0238796658814 165:0.0022633660119 166:0.21330536902 167:0.0598225481808 168:0.143949657679 169:0.0866148024797 170:0.0219806674868 171:0.285022288561 172:0.00698580779135 174:0.055587913841 175:0.09720813483 176:0.434817284346 177:0.0517205223441 178:0.102437540889 179:0.121304392815 180:0.0174093898386 181:0.456615388393 182:0.036150380969 183:0.00398713815957 184:0.148049637675 185:0.0128706330433 186:0.21712936461 187:0.0748444721103 188:0.0459507666528 189:0.123586401343 190:0.25556576252 191:0.31170463562 193:0.0840309411287 194:0.000133522320539 195:0.00605676602572 196:0.0126768080518 197:0.0063879317604 198:0.233945026994 199:0.914446890354 200:0.116222791374 201:0.0392095707357 202:0.612069010735 203:0.513422489166 204:0.91223937273 205:0.10280906409 206:0.424287199974 207:0.0136839170009 208:0.039430141449 209:0.0256835110486 210:0.690291941166 211:0.037308704108 212:0.510777831078 213:0.0607581809163 214:0.0403692834079 215:0.0965898483992 216:0.638788223267 217:0.0073190452531 218:0.138966247439 219:0.29590049386 220:0.0228943545371 221:0.130005955696 223:0.0497830249369 224:0.107171989977 225:0.0355258733034 227:0.000321510480717 228:0.0364989489317 229:0.0286990180612 230:0.0208125952631 231:0.00669492501765 232:0.747012674809 233:0.00764439767227 234:0.021109636873 235:0.0280213374645 236:0.09659768641 237:0.188468575478 238:0.0452400520444 239:0.0146530959755 241:0.090676382184 242:0.109662473202 243:0.00735366204754 244:0.0496256388724 245:0.400703668594 246:0.0933067649603 247:0.03873719275 248:0.185014501214 249:0.0336872898042 250:0.0461066886783 252:0.0395405851305 254:0.066369920969 255:0.0579170398414 256:0.186828732491 257:1.04653835297 258:0.0282894391567 259:0.083082832396 260:0.125991374254 261:0.0413768291473 262:0.778147399426 263:0.0196480453014 264:0.0013755740365 265:0.119013532996 266:0.017366245389 268:0.127501323819 270:0.132704004645 271:0.0767213851213 272:0.0347115583718 274:0.00776310823858 275:0.347270905972 276:0.0417864061892 277:2.79012703896 278:0.121953561902 279:0.00829353649169 280:0.0558479353786 282:0.108481742442 283:0.115943700075 284:0.754224777222 285:0.546769022942 286:0.418420284986 287:0.0309192147106 288:0.0399285294116 289:0.197230428457 290:0.0997274518013 291:0.0988577827811 292:0.0997989624739 293:0.0147990547121 295:0.515667676926 296:0.245187565684 297:0.521099865437 298:0.0594608932734 299:0.691477417946 300:0.0301028359681 302:0.254234939814 304:0.0966961830854 306:0.0803262218833 308:0.934176981449 309:0.0283095110208 310:0.136215239763 311:0.0446559488773 312:0.118342980742 313:0.10820966959 314:0.123086325824 315:0.106375195086 316:0.135883331299 317:0.0555173270404 318:0.216420069337 319:0.0340162478387 321:0.0176664739847 322:0.0420404821634 325:0.0158778112382 326:0.00852969288826 327:0.177962809801 328:0.0101791229099 329:0.187754511833 330:0.0180175639689 333:0.255362868309 334:0.00398754933849 335:0.00378196989186 336:0.0260414928198 337:0.21992816031 338:0.0890051200986 339:0.180305346847 340:0.209846809506 342:0.0348203293979 343:0.982452988625 344:0.576188385487 345:0.00561323668808 346:0.0425873287022 347:0.0892726704478 348:0.0385270118713 349:0.158689722419 352:0.101937584579 353:0.00247167423368 354:0.106840714812 355:0.344165325165 357:0.00374598661438 358:0.0179664883763 359:0.0473433099687 360:0.242155924439 362:0.0337156355381 363:0.0282349772751 364:0.0600218847394 365:0.0484177805483 366:0.0879277065396 367:0.708173453808 368:0.0782953128219 369:0.0477872565389 370:0.110707387328 371:0.0162426866591 372:0.134225562215 373:0.0662876293063 375:0.0832855477929 376:0.170267805457 377:0.627152502537 378:1.77839767933 379:1.48076736927 380:0.10029848665 381:0.0019107646076 382:0.454810738564 383:0.00913002900779 384:0.0595342665911 385:0.0747020244598 386:0.517195224762 387:0.0240901429206 389:0.434541761875 390:0.0233059022576 391:0.0956747233868 392:0.0350924953818 393:0.0848030522466 394:0.0114008625969 395:0.0437797233462 396:0.0519614517689 397:0.0360023714602 398:0.0066587314941 400:0.0592602267861 401:0.241234526038 402:0.618483424187 403:0.188868790865 404:0.20720936358 405:0.3115029037 406:0.0365054793656 407:0.310420721769 408:0.0125130824745 409:0.144579708576 410:0.7106295228 411:0.202250435948 412:0.0342252478004 413:0.145564183593 414:0.378277629614 415:0.0568078495562 418:0.0629788041115 419:0.438058584929 420:0.596703708172 421:0.0115201836452 422:0.621602892876 423:0.265988051891 424:0.193043842912 426:0.0633063912392 427:0.254859477282 428:0.126369729638 429:0.0767209902406 430:0.330544531345 431:0.00925059523433 432:0.116145439446 436:0.0525121241808 437:0.035305570811 438:0.0322187580168 439:0.518900096416 440:0.00201452127658 441:0.646263420582 442:0.114324726164 443:0.357598185539 444:0.184564515948 445:0.348213255405 446:1.60849809647 447:0.0860692709684 449:0.0166995599866 450:0.0290184449404 451:0.0249980315566 452:0.597411632538 453:0.195328652859 454:0.53677290678 455:0.0776472240686 456:0.712937176228 457:0.118138536811 458:0.00107443181332 459:0.0228906776756 460:0.0300940200686 461:0.0275123268366 462:0.200097352266 463:0.97806173563 465:0.0026158799883 466:0.0579870268703 468:0.0494002103806 469:0.0856986790895 470:0.0738517716527 471:0.670715928078 472:0.137883409858 473:0.0448371954262 474:0.230440795422 475:0.160260930657 478:0.310762643814 479:0.85282099247 480:0.067871183157 481:0.124654121697 482:0.0194123052061 484:0.0707321166992 486:0.00474796257913 488:0.683347463608 489:0.119175292552 491:0.0273412950337 492:0.00745512498543 493:0.0252944007516 494:0.12300337106 495:0.445422381163 496:0.00908783730119 497:0.0462208241224 498:0.150680333376 499:0.487469941378 501:0.363491415977 503:0.627512574196 504:0.344280302525 505:0.508521676064 507:0.143752723932 508:0.00888270419091 509:0.143489778042 510:0.253659158945 512:0.0807983875275 
0.4828779562296681 0 0 0 1:0.138484969735 2:0.0569751039147 3:0.0350797660649 5:0.0134851634502 6:0.0178328659385 7:0.195928066969 8:0.311979979277 9:0.0317912213504 10:0.101106479764 12:1.03851222992 13:0.140568107367 14:0.0285954568535 15:0.0109408795834 16:0.229275465012 18:0.00759763596579 19:0.0649858266115 20:0.000762484502047 21:0.054443962872 23:0.0542899183929 24:6.90563440323 25:0.224129036069 26:0.107026748359 27:0.132380485535 28:0.00698198098689 29:0.151788726449 31:0.0816764608026 32:1.10441792011 33:0.00254813977517 37:0.0222887992859 38:0.570708870888 39:0.0774960741401 43:0.0783605203032 44:0.377257734537 45:0.000584743451327 47:0.0216441657394 48:0.543751478195 49:0.101873882115 50:1.94848442078 53:0.00228854594752 54:0.528461813927 55:0.0821738690138 58:0.577525913715 60:0.0739597678185 63:0.0890215411782 65:0.264463692904 67:0.0218539573252 69:0.00393567513674 71:4.58609342575 72:5.00928449631 73:1.16710734367 74:1.43175208569 75:0.0181625466794 76:0.271696299314 77:0.0358897186816 78:0.046320900321 79:0.0170818734914 80:0.0235980655998 81:0.0132917761803 82:6.03939008713 85:0.564592957497 86:0.348149478436 87:0.0693928003311 89:0.0379927381873 90:0.0380337759852 91:0.00681440206245 92:0.00162268651184 93:0.111481271684 95:0.228309333324 97:1.457934618 98:0.561723172665 100:0.0341463647783 102:0.167048826814 103:0.000464031501906 104:0.0839239433408 105:0.0883353203535 106:0.0578677430749 109:0.0515353567898 111:0.0926509276032 112:0.786816954613 113:4.86006307602 114:0.1758595258 115:0.00631155772135 116:0.012056841515 117:0.0118667325005 119:0.00509775755927 120:0.0691629350185 121:0.0290986709297 122:0.00570611795411 125:0.0271618310362 126:0.0947073698044 128:0.0645898133516 129:0.0315533727407 131:0.0298100877553 132:0.248979881406 133:0.0948632732034 135:0.0126974657178 136:0.0337822958827 137:0.0721560493112 138:0.379957318306 139:0.0587376058102 142:0.361062258482 144:0.0948570072651 147:0.27857670188 148:0.0232403799891 149:0.0103897806257 150:0.0205437932163 151:0.331164956093 152:0.0639836415648 153:0.00479003461078 154:0.11429092288 155:0.17494289577 157:0.287989795208 161:0.0583228468895 162:0.0495060272515 163:0.0481687746942 164:0.023334948346 165:0.0171438492835 166:0.122382573783 170:0.0149341505021 171:1.60757875443 174:0.00272772926837 175:0.0218172669411 176:0.739282846451 177:0.0314832106233 178:0.217962488532 179:0.0570178814232 180:0.0999551489949 181:0.122383922338 183:0.00123420939781 185:0.11851067096 186:0.282355815172 187:0.0300668794662 189:0.325199246407 190:0.168819740415 191:0.0293485373259 192:0.120642699301 194:0.0482944063842 195:0.227186411619 197:0.147875651717 198:0.0720211267471 200:0.130566045642 201:0.0667712986469 202:0.476676762104 205:0.126222535968 206:0.283717811108 207:0.00401083286852 208:0.0025773011148 209:0.422795295715 210:0.0943893194199 211:0.027430800721 212:0.106939651072 213:0.00948439445347 214:0.0688640922308 215:0.0226711444557 216:0.415171682835 218:0.0256490428001 219:0.268001109362 220:0.205000549555 221:0.128885418177 224:0.0219416860491 225:0.0127191152424 227:0.0222426671535 230:0.0165951158851 232:0.220768645406 236:0.0331371128559 238:0.111775904894 239:0.0812917724252 242:0.0243770312518 243:0.000115043025289 245:0.280252814293 246:0.0184503383934 247:0.0767610222101 249:0.0178029574454 250:0.0374942682683 251:0.00175319041591 254:0.0026273264084 256:0.0918609648943 258:0.0271445773542 259:0.00390924001113 260:0.124458856881 261:0.0469041876495 262:0.102709941566 266:0.0445496104658 268:0.665763199329 270:0.437126338482 271:0.0108409579843 273:0.393301665783 275:0.521764576435 276:0.100509956479 278:0.120484016836 279:0.0669036135077 280:0.0522996149957 281:0.0199586991221 282:0.0381114557385 283:0.0121561065316 284:0.40875518322 285:0.223878830671 286:0.0110126193613 288:0.239316150546 289:0.0199146009982 291:0.0305327437818 292:0.0257079359144 293:0.222329750657 294:0.00159278290812 296:0.155343443155 297:0.974937200546 298:0.0770879536867 299:0.211543217301 301:0.0544329173863 302:0.00233108736575 303:0.1195775792 304:0.0522273108363 305:1.17619681358 306:1.11706018448 307:0.0946269407868 308:0.0008831875748 311:0.0224628951401 312:0.0315210521221 313:0.104695551097 315:5.28958940506 316:0.0331856943667 317:0.0762786567211 318:3.72577142715 319:0.847544848919 321:0.0488497503102 322:0.81223654747 325:0.0644449070096 326:0.514679789543 328:0.0209268406034 329:0.45073094964 330:0.0141434604302 332:0.0202676951885 333:0.0364077799022 334:0.0179735347629 335:0.00708021782339 336:0.0408875234425 337:0.111466616392 338:0.0179119817913 339:0.0676739662886 340:0.00628530466929 342:0.25028988719 343:0.115335322917 344:0.306008130312 345:0.0100554591045 346:0.329273730516 352:0.213690817356 354:0.160840004683 355:0.15410913527 356:0.0754230618477 360:1.23824632168 363:0.097530528903 366:0.341327577829 368:0.107783101499 369:0.0207374878228 370:0.0305636841804 371:0.0331109277904 373:0.0160684287548 376:0.183360233903 377:0.013171297498 378:0.012274377048 379:0.619637966156 381:0.758425652981 384:0.00971681252122 386:0.54189735651 387:0.00787960737944 388:0.0447117350996 390:0.0233121886849 391:0.0830704420805 392:0.103146709502 393:0.00361473951489 394:0.0107950894162 395:0.320541411638 396:0.420611381531 397:0.380173742771 398:0.0151730990037 399:0.117616117001 401:0.152315109968 402:0.0135998614132 403:0.030531456694 404:0.581678807735 405:1.60898005962 406:0.108606502414 408:0.00746010243893 409:0.554969370365 410:0.0127589441836 411:0.00851023755968 414:0.187857300043 417:0.753294765949 418:0.12826962769 419:0.0342596918344 420:0.449488312006 421:0.148609027267 422:0.533237814903 424:1.90632152557 426:0.0273534618318 427:0.0045435805805 428:0.113256841898 429:0.177972793579 430:0.278522878885 431:0.00486331991851 432:0.105531819165 433:0.0560402870178 436:0.00298241502605 438:0.0684709325433 439:0.0182425249368 440:0.120397157967 441:0.0180544406176 443:0.00866630952805 445:0.00273326435126 446:1.4151968956 447:0.014260279946 450:0.174260646105 452:0.532768964767 453:0.175220325589 454:0.00423896079883 455:0.00795144680887 456:0.478823840618 462:0.0596792921424 463:0.0837922990322 464:0.317286014557 465:0.100436367095 466:0.0160739030689 467:0.00475804181769 468:0.0217878688127 469:0.0242401268333 470:0.0608734749258 471:2.43213844299 472:0.0374575182796 473:0.00244732783176 476:0.00204062694684 478:0.398460388184 480:0.097944483161 481:0.0863900184631 482:0.110876604915 483:0.000408608088037 484:0.00454246252775 486:0.027643635869 487:0.546039581299 488:0.49483948946 489:0.168648153543 490:0.018909201026 491:0.0649733096361 492:0.00741333840415 494:0.0716076642275 495:0.437315315008 496:0.00584396533668 497:0.0386905670166 498:0.0221585445106 499:0.657168865204 502:0.00256842072122 503:0.15077227354 504:0.129303172231 505:0.0596706457436 506:0.0171577688307 507:0.00610015075654 508:0.102005563676 510:0.138623282313 511:0.00594104547054 512:0.0214849971235 
1 0 0 0 1:0.0543565750122 3:0.0602401904762 6:0.0182529632002 7:0.22088509798 8:0.287713527679 9:0.007311782334 10:0.0640157684684 11:0.00520574813709 12:0.694927334785 13:0.17215514183 14:0.0414092577994 15:0.476819634438 17:0.0391363017261 18:0.048154309392 19:0.0372707694769 20:0.0811735764146 21:0.7624822855 22:0.155432730913 23:0.0175522584468 24:0.00827797316015 25:0.470384865999 26:0.0702357590199 27:0.118715569377 28:0.09902523458 30:0.11077798903 31:0.139975324273 32:2.02947473526 33:0.277002006769 34:0.41948902607 36:0.221949666739 37:0.239862471819 38:1.13557684422 39:1.18821310997 40:0.0356431789696 41:0.100504241884 43:0.302831411362 44:0.0644764974713 46:0.00720640085638 47:0.6904925704 48:0.701602816582 49:0.180836454034 50:0.36018422246 52:0.789894878864 53:0.0361116826534 54:0.761498093605 56:0.0105361454189 57:0.0191533286124 60:0.0936625003815 61:0.0107418308035 63:0.057034637779 64:1.12834620476 65:0.647356629372 66:0.0953449383378 67:0.22059892118 68:0.0705698281527 69:0.184938743711 70:0.631254792213 73:0.259694457054 74:0.928544700146 76:0.44461452961 78:0.394604414701 80:0.00303091015667 81:0.00221466063522 83:0.535192489624 85:0.0257713086903 86:0.414661675692 87:0.573832809925 88:0.0954518765211 89:0.23001588881 91:0.256385982037 92:0.557436168194 93:0.0707380622625 94:0.118065908551 95:0.279512405396 96:0.020418504253 97:0.969008207321 98:0.242697268724 99:0.0742870271206 100:0.136457830667 101:0.0232711024582 102:1.17313790321 103:0.092832505703 104:0.830637216568 105:0.00881803780794 106:0.0608666576445 107:0.379578828812 108:0.0819376111031 109:0.175329744816 110:0.250649511814 111:0.0117420852184 112:0.886099219322 114:1.0182415247 115:0.0870805159211 116:0.100926078856 117:0.122379258275 118:0.0231786556542 119:0.0731045231223 120:0.0989128574729 121:0.0201965458691 122:0.15797945857 123:0.0304479431361 124:0.0766711682081 125:0.0779008865356 126:0.019544582814 128:0.0523886084557 129:0.016023080796 130:0.0160787850618 132:0.32602006197 133:0.11360732466 134:0.0315358825028 135:0.473390340805 136:0.146291539073 137:0.0897181257606 138:0.473798125982 139:0.0558601245284 140:0.0852673575282 141:0.0501493811607 142:0.10715688765 143:0.34539437294 144:0.0295167323202 145:0.00958760920912 146:0.156173586845 147:0.185769587755 148:0.428263038397 149:0.0281196348369 150:0.0414365828037 151:0.0622144304216 152:0.0244738683105 153:0.00243043527007 154:0.0664260014892 155:0.00119099859148 156:0.183933526278 157:0.187970742583 158:0.320165514946 160:0.102198891342 161:0.348608702421 162:0.210133701563 163:0.309859603643 166:0.255061656237 168:0.00170306768268 169:0.0260005258024 170:0.00133898062631 171:0.555860757828 173:0.0594565793872 174:0.414144963026 175:0.0405147224665 176:0.390285938978 177:0.0547961965203 178:0.109723001719 179:0.0753032490611 181:0.482223302126 182:0.164524450898 183:0.396082103252 184:0.230766192079 185:0.024949638173 186:0.368245184422 187:0.0588554441929 188:0.425582557917 189:0.237642616034 190:0.624107658863 191:0.411670207977 192:0.130599617958 194:0.214919567108 195:0.269067317247 196:0.0693732723594 198:0.445690542459 199:0.0555364154279 200:0.181403309107 201:0.353693455458 202:0.349885493517 203:0.602061510086 204:0.0201058443636 205:0.0451653338969 206:0.557434678078 208:0.0560407973826 209:0.064902998507 210:0.209288671613 211:0.0577796064317 212:0.29883363843 213:0.10633160919 214:0.535421788692 216:0.664099991322 217:0.130898445845 218:0.0593243315816 219:0.431534439325 220:0.125586301088 221:0.000913403287996 223:0.487204790115 224:0.237509921193 225:0.0152618344873 228:0.0471361801028 229:0.0196704175323 230:0.00693860836327 232:0.634297192097 234:0.308802217245 235:0.0048059085384 236:0.11014277488 237:0.070444881916 238:0.10664948076 240:0.020469577983 241:0.659291923046 242:0.0298156980425 243:0.0924962684512 245:0.340854018927 246:0.0731386467814 247:0.0974716469646 249:0.0310364048928 250:0.451404958963 251:0.0044057755731 252:0.0179744530469 253:0.00648906268179 255:0.0437958799303 256:0.420193165541 257:0.0554231740534 258:0.149082943797 259:0.101471170783 260:0.481250524521 261:0.0331749804318 262:0.200643658638 263:0.0511176101863 264:0.0276840757579 265:0.661229670048 268:0.166429236531 270:0.163876399398 271:0.0564604736865 274:0.0066833444871 275:0.443766564131 276:0.178272977471 277:0.288761615753 278:0.0346045643091 280:0.167394310236 281:0.0306133367121 282:0.0978989899158 283:0.225299283862 284:2.00764775276 285:0.765085995197 286:0.319204390049 287:0.00149307202082 288:0.262849777937 289:0.0896431952715 290:0.118787296116 291:0.133266210556 292:0.188143253326 293:0.17538331449 294:0.0325010791421 295:0.542285740376 296:0.138158723712 297:0.845160782337 298:0.232274144888 299:0.454593837261 300:0.0462200678885 301:0.119010478258 302:0.155362278223 303:0.155209973454 304:0.133171752095 305:0.0265437439084 306:0.198253497481 307:0.014785294421 308:0.493554592133 309:0.168545082211 310:0.0389689281583 311:0.0192428920418 312:0.166057452559 313:0.519981622696 316:0.284407645464 317:0.228566065431 318:0.0165911838412 320:0.00122445821762 321:0.00142541225068 324:0.0493494719267 325:0.0432008504868 327:0.105405531824 328:0.0177655201405 329:0.517517089844 330:0.217890962958 331:0.0709275901318 333:0.269840091467 334:0.0616749823093 335:0.0189526025206 336:0.0171017125249 337:0.124876834452 338:0.111880905926 339:0.316870629787 340:0.819968700409 342:0.0462238937616 343:0.825439751148 344:0.332620888948 346:0.0615685805678 347:0.0490737184882 348:0.0978165715933 349:0.281841397285 350:0.0939626172185 352:0.0444464758039 353:0.313274472952 354:0.144808411598 355:0.219587787986 356:0.0839069783688 357:0.00454099941999 358:0.0270661395043 359:0.00147387443576 360:0.216489478946 361:0.0244310405105 362:0.00492035131902 363:0.112990237772 364:0.0609097965062 365:0.398826092482 366:0.24941329658 367:0.0298087783158 368:0.0361719802022 369:1.08782565594 370:0.0238915160298 371:0.0635515004396 373:0.0423427075148 375:0.0175555869937 376:0.257473617792 377:0.12464877218 378:0.949726462364 379:0.506263077259 380:0.018612248823 382:0.546531617641 384:0.0367943607271 385:0.220577508211 386:0.578801453114 387:0.0423195697367 388:0.163684651256 391:0.169595777988 392:0.0161454491317 393:0.0820896923542 395:0.00571827497333 396:0.0781555473804 397:0.0227291211486 398:0.0858944654465 399:0.0768096297979 400:0.0386675819755 401:0.269734948874 402:0.43017950654 403:0.238218650222 404:0.90947163105 405:0.457367628813 406:0.0560900382698 407:0.536160826683 408:0.0357275381684 409:0.005678167101 410:0.253205537796 411:0.0506745241582 412:0.126323759556 413:0.187724784017 414:0.302760869265 415:0.159638285637 416:0.081113986671 417:0.0138026839122 418:0.0756415724754 419:0.454344332218 420:0.331613957882 421:0.11612406373 422:0.131231963634 423:0.14074498415 425:0.250504553318 427:0.811852872372 428:0.246721923351 429:0.0756328105927 430:1.07511651516 432:0.150537282228 434:0.0706176236272 436:0.0586999803782 439:0.249608755112 441:0.0271647889167 443:0.603664517403 445:0.435486793518 446:0.714759886265 448:0.0438623018563 449:0.0112633584067 450:0.0552852153778 451:0.0011098200921 452:0.723604559898 453:0.284457802773 454:0.184968456626 455:0.153164789081 456:0.471791893244 457:0.0013949990971 458:0.169971600175 459:0.00812118127942 460:0.0818948373199 462:0.032911490649 463:0.270129293203 464:0.0625785216689 465:0.109434634447 467:0.402429461479 468:0.0570148453116 469:0.249511092901 470:0.0432437509298 471:0.911953091621 472:0.264999359846 473:0.00243955734186 474:0.144781127572 475:0.0843775570393 478:0.102959647775 479:0.225346580148 480:0.394340455532 481:0.33056974411 482:0.101537540555 484:0.161414936185 485:0.025672994554 486:0.221883267164 487:0.293903440237 488:0.346649706364 489:0.118733756244 490:0.0242719743401 491:0.0782459527254 494:0.072761066258 495:0.650116562843 496:0.236694648862 497:0.0351025424898 498:0.093084320426 499:0.782243669033 501:0.0591248981655 503:0.284171402454 504:0.201095968485 505:0.817360043526 506:0.157804071903 507:0.000125068982015 508:0.0772289037704 509:0.00882540736347 510:0.117786675692 511:0.00012981252803 512:0.117166109383 
1 0 0 0 2:0.0093109505251 3:0.111227817833 4:0.00464777555317 6:0.0616867281497 7:0.159032523632 8:0.187525749207 9:0.0225332900882 10:0.0079845841974 12:0.564976036549 13:0.0234265718609 14:0.0742408707738 15:0.339390456676 16:0.0543089322746 17:0.0176824871451 18:0.0712051168084 20:0.0787130445242 21:0.791092574596 22:0.426921457052 23:0.109736345708 25:0.162240028381 26:0.0676670372486 27:0.599496901035 28:0.087859608233 29:0.0350929386914 30:0.314309209585 31:0.0472943782806 32:2.01623558998 33:0.304199665785 34:0.321597158909 36:0.0269343126565 37:0.437125146389 38:1.13868308067 39:0.715870440006 40:0.0848959237337 41:0.0861569568515 43:0.0587567016482 44:0.0307716727257 46:0.0261204671115 47:0.489785909653 48:0.284300088882 50:0.352127850056 52:0.260139703751 54:1.00083661079 55:0.0226398780942 56:0.0581259019673 57:0.00510468473658 60:0.00281184050255 63:0.0156084587798 64:0.645001828671 65:0.683826565742 66:0.000306579517201 67:0.275784879923 68:0.087105691433 69:0.11338070035 70:0.600013971329 71:0.471152484417 72:0.163256317377 73:0.0849889591336 74:0.599447369576 76:0.180211082101 78:0.140759035945 82:0.141662374139 83:0.43347081542 85:0.135492965579 86:0.0912210568786 87:0.378116875887 88:0.283582866192 89:0.134022340178 90:0.00532133458182 91:0.105109833181 92:0.117360852659 93:0.00229432573542 95:0.170178219676 96:0.0179612282664 97:0.667607426643 98:0.278699040413 99:0.0104207890108 100:0.000303663749946 102:0.573368906975 103:0.066857047379 104:0.959025800228 107:0.482392758131 108:0.126125574112 109:0.035896115005 112:0.0498345941305 113:0.135340422392 114:1.35382604599 115:0.257196813822 116:0.0112553713843 117:0.0724039450288 118:0.0580282509327 119:0.000616664765403 122:0.171956717968 124:0.0383582413197 125:0.154535159469 128:0.0427989177406 129:0.032609090209 132:0.123368710279 133:0.154217675328 134:0.131625518203 135:0.151593625546 136:0.554399609566 137:0.319273382425 138:0.197200730443 140:0.0531975962222 141:0.0927365124226 142:0.213797777891 143:1.82476365566 144:0.0639896839857 145:0.0641127750278 146:0.059376526624 147:0.558526277542 148:0.467597782612 149:0.042722132057 153:0.0133138699457 154:0.0244145728648 155:0.0114206001163 156:0.0534634925425 157:0.0994149073958 158:0.504376292229 159:0.00615526223555 160:0.0106383003294 161:0.214908868074 162:0.0342757888138 163:0.234716638923 166:0.51085036993 167:0.0932175144553 168:0.0407031178474 169:0.082436747849 170:0.00290586962365 171:0.135513007641 173:0.0515236929059 174:0.544096708298 175:0.0232468806207 176:1.27950513363 177:0.0201281346381 178:0.263766407967 179:0.0883671268821 181:0.261586397886 182:0.017139127478 183:0.00198302953504 184:0.0591016300023 186:0.42948281765 187:0.0362486094236 188:0.114884957671 189:0.105990037322 190:1.14734137058 191:0.0968963056803 192:0.182773590088 194:0.00432604085654 196:0.176422446966 197:0.0231275893748 198:0.134885042906 199:0.013184690848 200:0.0546072535217 202:0.0599916391075 203:0.563031315804 204:0.00173282925971 205:0.060607034713 206:0.625186741352 207:0.148848548532 208:0.0893455669284 209:0.00539743294939 210:0.12909181416 211:0.0401323214173 212:1.2378872633 213:0.104584887624 214:0.322839587927 216:0.358733981848 218:0.0735777392983 219:0.248757377267 220:0.000537698331755 223:0.0930435582995 224:0.0152275757864 227:0.0237739179283 228:0.010514151305 229:0.00152811221778 230:0.172015860677 232:0.238205075264 233:0.0251784529537 234:0.200925886631 235:0.00574837531894 236:0.00373900658451 238:0.0873124226928 239:0.00476724188775 241:0.630444943905 242:0.0156235424802 243:0.0169190634042 245:0.272315144539 247:0.0253490172327 248:0.045387133956 249:0.00280398735777 250:0.188571125269 251:0.053211838007 252:0.00151949375868 253:0.0349667221308 254:0.00311681674793 255:0.0364390127361 256:0.172740653157 257:0.0180603265762 259:0.0152471791953 260:0.114385686815 261:0.000810911587905 262:0.27922385931 263:0.002527999226 265:0.913938760757 266:0.139763221145 268:0.0342239290476 270:0.0174969993532 271:0.0188037417829 273:0.0132647091523 274:0.00871380232275 275:0.359463810921 276:0.00993183627725 277:1.75413668156 278:0.113685928285 279:0.0357593856752 280:0.331286221743 281:0.0433264933527 283:0.240714147687 284:1.54160535336 285:0.387673735619 288:0.0391923561692 289:0.0120425485075 290:0.0421776324511 291:0.370829045773 292:0.0139708239585 293:0.0921582579613 294:0.0301255229861 295:0.34048551321 296:0.204115197062 297:0.634823262691 298:0.0903817340732 299:0.439566701651 302:0.0159564912319 303:0.00954758096486 304:0.0663700774312 305:0.0322320610285 307:0.0344056673348 308:0.157355844975 309:0.389606922865 310:0.00245322845876 312:0.110197991133 313:0.246225550771 315:0.219267040491 316:0.230758994818 317:0.182895675302 318:0.121806845069 319:0.00614465260878 320:0.012257934548 324:0.0748699232936 325:0.127480596304 326:0.000950625922997 327:0.00673530297354 328:0.0180334392935 329:0.126911818981 330:0.425268679857 333:0.361484259367 334:0.136349856853 335:0.00436980603263 336:0.0179490391165 337:0.00165199604817 338:0.0247926656157 339:0.240340560675 340:0.528474926949 342:0.172486022115 343:0.814709246159 344:0.188688084483 345:0.0145166525617 346:0.105621278286 347:0.0332118161023 348:0.080597653985 349:0.507001399994 350:0.0949213132262 352:0.0415707454085 353:0.0460970848799 354:0.21398845315 355:0.178243890405 356:0.00956538319588 357:0.146825447679 359:0.181207850575 360:0.0285974312574 362:0.0473072566092 363:0.00335914385505 365:0.181763514876 366:0.0270586498082 367:0.146563366055 369:0.0651013404131 370:0.0123851420358 371:0.00145968364086 372:0.0281583275646 375:0.145752161741 376:0.143684566021 377:0.026830079034 378:1.41486525536 379:1.74593269825 380:0.0392558313906 381:0.00306188315153 382:0.10640539974 384:0.000869531999342 385:0.011299691163 386:0.224022731185 387:0.0537044294178 388:0.0951757803559 389:0.134230956435 391:0.0320166684687 392:0.0753668472171 393:0.458563178778 395:0.0726688355207 396:0.00323939719237 397:0.0135112460703 398:0.30143865943 399:0.0673949569464 400:0.00312627083622 401:0.160575434566 402:0.416015684605 403:0.10716522485 404:0.186422228813 405:0.19177262485 407:0.18567584455 408:0.095182530582 409:0.232605487108 410:0.016197392717 411:0.00442435545847 412:0.0506472140551 413:0.193549126387 414:0.199891343713 415:0.00605922937393 418:0.353491991758 419:0.402617186308 420:0.432965785265 421:0.028727049008 423:0.368928432465 424:0.451710402966 425:0.0977409854531 427:0.450469881296 428:0.350283443928 429:0.0483355335891 430:0.289256215096 431:0.017887301743 432:0.141610234976 433:0.00208771950565 434:0.0280222501606 436:0.0201207268983 437:0.00905084423721 438:0.00597095582634 439:0.0631136670709 441:0.00946299824864 443:0.322398513556 444:0.0186380781233 445:0.194040924311 446:1.30043709278 450:0.0178742185235 451:0.063814304769 452:0.0982216596603 453:0.0410457588732 454:0.103074632585 455:0.0262315701693 456:0.777412712574 457:0.0098035549745 458:0.210962742567 459:0.0799573212862 460:0.0061540203169 461:0.000489826081321 462:0.00244545680471 463:0.313855588436 464:0.0279624257237 465:0.126934498549 466:0.00883282907307 467:0.00263341097161 468:0.0683127492666 469:0.0961958542466 470:0.101007297635 471:1.19789469242 472:0.113427557051 473:0.000434228335507 475:0.00132012483664 477:0.0332823507488 479:0.142765969038 480:0.114285312593 481:0.0484696626663 482:0.0716441944242 483:0.019005600363 484:0.111653082073 485:0.00726665649563 486:0.0991601422429 487:1.14227250378e-05 488:0.0878500565886 489:0.0674196258187 491:0.0241784974933 494:0.0143874268979 495:0.649924695492 496:0.0195042062551 497:0.00272611668333 498:0.136465892196 499:0.655399918556 500:0.00786070898175 501:0.113704271615 503:0.0820527672768 504:0.448097378016 505:0.701621770859 506:0.00464771687984 507:0.0932138487697 508:0.0932396650314 509:0.00164795410819 510:0.00734074693173 511:0.0223022028804 512:0.543096661568 
0.1951107721851552 0 0 0 1:1.69228533196e-05 5:0.169130578637 6:0.0226359292865 7:0.128441259265 9:0.166270315647 12:1.0762501955 13:0.167929977179 14:0.244856193662 15:0.00705886352807 17:0.0159278418869 19:0.0309121180326 20:0.0211576540023 21:0.742284238338 22:0.0959751904011 23:0.464397728443 25:0.654637157917 28:0.00130898610223 30:0.0134768933058 31:0.00864845328033 32:2.9692466259 33:0.0330835059285 37:0.749777853489 39:0.36055123806 43:0.122744575143 44:0.118657067418 45:0.00500720366836 48:0.729052305222 50:1.07317888737 52:0.0459392890334 54:0.447957009077 55:0.0719579830766 56:0.00096549425507 61:0.0203536543995 63:0.348809748888 65:0.416287750006 67:1.08579397202 69:0.0145175382495 70:0.0910111814737 71:8.10245800018 72:5.06195449829 73:0.135302886367 74:1.78565907478 76:0.408405095339 77:0.0458353534341 82:0.269178360701 83:0.00814015977085 88:0.0864919051528 93:0.00184574897867 95:0.257269173861 97:1.17333686352 98:0.431326329708 100:0.140319779515 101:0.0641947984695 102:0.696883440018 104:0.10088596493 105:0.000360985170119 106:0.0586111098528 107:0.0132252490148 109:0.0802760869265 110:0.0808844268322 112:1.81300222874 113:5.35535907745 114:1.04600083828 119:0.106510803103 121:0.139529913664 122:0.0251723490655 124:0.0495107397437 125:0.00569287920371 126:0.124191321433 128:0.098322071135 130:0.00976648647338 135:0.70632982254 136:0.0520363152027 137:0.0819865018129 138:0.192699953914 141:0.00308485771529 143:6.15420103073 144:0.302190899849 145:0.0872790664434 146:0.0167167242616 147:0.662968754768 148:0.0353152751923 149:0.244566783309 150:0.0259166974574 151:0.155764386058 152:0.363773703575 154:0.202626556158 155:0.00218819221482 158:0.0902618691325 160:0.00244402815588 161:0.277047544718 162:0.11657127738 163:0.22126929462 166:0.320991247892 167:0.69755667448 170:0.00233298656531 171:1.35871422291 175:0.30723285675 176:2.17462706566 178:0.216097205877 183:0.528994858265 184:0.230041071773 185:0.131861776114 186:0.13110370934 187:0.0204745363444 188:2.25260919251e-05 189:0.0154748763889 190:0.717336237431 191:0.00378194870427 192:0.0809964835644 195:0.0210167579353 196:0.0217029508203 200:0.217153191566 201:0.298322767019 202:0.40498778224 203:0.00410012062639 206:0.452257692814 207:0.0124203693122 208:0.0567101351917 209:0.0320201851428 210:0.0117013351992 212:0.363382130861 214:0.0159387998283 216:0.0551061220467 218:0.0135873090476 220:0.200248911977 221:0.00357297854498 224:0.00767264282331 225:0.0801370441914 227:0.017778204754 230:0.0417134128511 233:0.0180862210691 235:0.00284667639062 237:0.0802693739533 243:0.0651420652866 245:0.278735131025 246:0.130013331771 251:0.157016083598 255:0.0813220664859 256:0.0746215358377 260:0.233237668872 261:0.152820214629 262:0.364139914513 268:0.239940211177 270:0.123763941228 271:0.0241258051246 274:0.00146861746907 275:0.425431698561 276:0.108354099095 277:5.30445814133 278:0.725054740906 280:0.0396089404821 282:0.201836526394 283:0.0490270443261 284:1.19871532917 285:1.37357866764 288:0.344402343035 289:0.169347092509 291:0.196109578013 292:0.0636619701982 293:0.00890336185694 294:0.00468772277236 296:0.589944183826 297:0.298501610756 298:0.0241916570812 299:0.569290459156 301:0.375874459743 302:0.00909646693617 303:0.0728524774313 304:0.0635328963399 305:0.272508114576 306:0.448520570993 308:0.114858321846 309:0.0431010946631 310:0.00464196829125 311:0.0973721817136 313:0.475111544132 315:6.99335575104 316:1.00770568848 318:6.43834257126 322:0.140514805913 324:0.254010528326 328:0.0335388891399 329:0.0251298267394 330:0.0113875204697 335:0.0550321564078 338:0.00134037877433 339:0.0285190343857 340:0.237623408437 342:0.0656709820032 343:0.300089865923 344:0.480022251606 347:0.0231802016497 349:0.21653431654 351:0.0602070838213 352:0.236174583435 355:0.0598176568747 358:0.116880498827 360:0.154114469886 361:0.105867519975 366:0.518153309822 367:0.139335811138 368:0.145845487714 370:0.0012963085901 371:0.0135123664513 372:0.289052069187 373:0.125751838088 377:0.189195096493 378:0.385275959969 379:1.29162788391 380:0.00581088336185 386:0.0147727262229 391:0.0323154516518 392:0.27518209815 393:0.015362626873 398:0.275768756866 400:0.24876023829 401:0.333709090948 402:0.0116788502783 403:0.0035715282429 404:1.12309205532 405:0.256026625633 406:0.0880545303226 408:0.00222284696065 409:3.19057631493 413:0.0748674720526 414:0.0849579796195 415:0.000968633859884 418:0.151268064976 419:0.184564083815 420:1.34349310398 421:0.460251688957 422:0.12417755276 424:7.62895011902 425:0.0277003291994 427:0.00247061974369 428:0.862290263176 429:0.0646623671055 430:0.308620274067 432:0.0303264632821 434:0.0195479393005 436:0.0107575813308 437:0.00958796776831 440:0.00511774001643 443:0.022719450295 445:0.00689554121345 446:2.65209889412 452:1.43226885796 454:0.00322264083661 455:0.045855011791 456:0.0728137046099 460:0.0124413892627 462:0.143987029791 463:0.0512026660144 464:0.379815965891 465:0.144674748182 468:0.119735844433 469:0.115699879825 471:1.4760812521 472:0.449912071228 478:0.285873174667 480:0.112627074122 481:0.0161164533347 482:0.480455964804 485:0.019592134282 487:0.291739135981 488:0.158652737737 491:0.26581376791 494:0.00657488126308 495:0.266113817692 496:0.962322235107 497:0.270110309124 498:0.00686396984383 499:0.364010483027 502:0.00234852312133 506:0.029512828216 509:0.0620512627065 511:0.0878681540489 512:0.141100093722 
0.5410673065214531 0 0 0 1:0.0886771827936 2:0.0750063508749 3:0.0828175544739 5:0.000396516843466 6:0.0908421799541 7:0.178112149239 8:0.0283142104745 9:0.0210302267224 10:0.0733865275979 12:0.881336569786 13:0.0437104776502 14:0.132492184639 15:0.00324338790961 16:0.126316219568 19:0.0263845864683 20:0.137348905206 21:0.522120773792 22:0.255730628967 23:0.0267658866942 24:2.47781562805 25:0.298356056213 26:0.00118462159298 28:0.17311014235 30:0.428282350302 32:0.831718742847 33:0.213228031993 34:0.0632762536407 35:0.00180046528112 37:0.250787973404 38:0.0268595144153 39:0.801362633705 41:0.18899333477 43:0.179750785232 44:0.0189381483942 45:0.00389447133057 47:0.619296431541 48:0.441402047873 49:0.0623883903027 50:0.57643610239 52:0.0598154403269 53:0.175259724259 54:0.558384656906 55:0.145922154188 56:0.0564270578325 57:0.0637735277414 59:0.0198741201311 61:0.025986302644 63:0.138812825084 64:0.833073794842 65:0.544812858105 66:0.409511953592 67:0.00104610284325 68:0.0649281293154 70:0.0600226931274 71:0.0956377610564 72:0.322698831558 73:0.721676707268 74:1.20217776299 77:0.00565080251545 78:0.249405995011 80:0.00762088084593 81:0.0427432619035 82:2.42447209358 83:0.15323741734 84:0.00855432730168 85:0.00309946388006 86:0.43875643611 87:0.132660210133 88:0.408195823431 89:0.168842345476 91:0.195228338242 92:0.192614257336 93:0.0664788857102 94:0.106797963381 95:0.130413115025 96:0.00184181751683 97:1.2194340229 98:1.18856108189 99:0.13641795516 100:0.128291189671 101:0.00218224432319 102:0.741205096245 103:0.139263361692 104:0.430085539818 105:0.00567216286436 106:0.0217589493841 107:0.303429931402 108:0.0366153642535 109:0.0271553639323 110:0.237547963858 111:0.0046856016852 112:0.866991758347 113:0.405822992325 114:0.0223088935018 115:0.0812797397375 116:0.00313393678516 119:0.207154661417 120:0.174423918128 121:0.0622248053551 122:0.132493525743 123:0.0146660124883 124:0.183609724045 125:0.179025068879 126:0.0756207555532 128:0.123454079032 129:0.127418085933 132:0.0103445779532 133:0.0766684636474 134:8.06278185337e-05 135:0.494350224733 136:0.167279109359 137:0.00569969881326 138:0.221168667078 139:0.00452495319769 140:0.121672771871 141:0.0251942165196 142:0.117623046041 143:0.551762104034 144:0.00182142609265 145:0.00413347780704 146:5.32762123839e-06 147:0.561180710793 148:0.452508866787 149:0.0583039373159 150:0.0197571627796 151:0.0547542348504 152:0.076918900013 154:0.1358384341 155:0.0216792430729 156:0.151296302676 157:0.198858380318 158:0.2998252213 160:0.193045824766 161:0.385731488466 162:0.0782644301653 163:0.298540741205 166:0.0163297913969 168:0.00095097994199 169:0.0218809694052 170:0.0158812664449 171:0.788483142853 174:0.510948956013 175:0.108108967543 176:1.74254667759 177:0.014283974655 178:0.0198843665421 179:0.0545170642436 180:0.0344800762832 181:0.626431882381 182:0.178333356977 183:0.232539623976 184:0.110298193991 185:0.00896254368126 186:0.712629020214 187:0.290965378284 188:0.36723703146 190:0.774566531181 191:0.902910351753 192:0.0813394933939 193:0.0136274471879 194:0.0489228107035 195:0.0596673153341 198:0.498761892319 199:0.0217414945364 201:0.748562455177 202:0.715107679367 203:0.481411993504 204:0.0444654636085 205:0.023539274931 206:0.421568661928 207:0.125592932105 208:0.141854286194 209:0.456546783447 210:0.156895816326 212:0.0727984905243 214:0.00515636894852 215:2.24089126277e-05 216:0.00278968713246 217:0.00288482988253 218:0.0593562163413 219:0.294815927744 220:0.112826779485 221:0.000826713978313 222:0.0987496823072 223:0.665112137794 224:0.128930687904 225:0.022946856916 228:0.00189258856699 229:0.0255623906851 232:0.0237914416939 233:0.0298684127629 234:0.1769618541 235:0.0588298626244 237:0.090991653502 238:0.0064507513307 240:0.0315891206264 241:0.638133764267 242:0.275003284216 243:0.0955758243799 245:0.456594198942 246:0.0375910401344 247:0.271774351597 248:0.00284056272358 250:0.809764623642 251:0.0188715029508 252:0.0495503656566 253:0.00226668221876 255:0.0188719034195 256:0.241976886988 257:0.236294493079 258:0.0750397145748 259:0.00918330717832 260:0.0844639539719 261:0.101933866739 262:0.0180884674191 263:0.131068557501 264:0.109946407378 265:0.463416099548 266:0.120020136237 268:0.383535802364 270:0.242695450783 271:0.0321841798723 272:0.136392429471 273:0.112521581352 274:0.0450525917113 275:1.15406358242 276:0.00263911532238 277:0.0046699559316 278:0.147228315473 280:0.340327262878 281:0.0431783758104 282:0.142446443439 283:0.587518334389 284:0.435871124268 285:0.741197764874 287:0.000751838379074 288:0.441923260689 289:0.0397549755871 290:0.0538952760398 291:0.901469051838 292:0.209613233805 295:0.0918684750795 296:0.338205993176 297:1.00584816933 298:0.363968342543 299:0.00806189980358 300:0.0181935857981 301:0.201575875282 302:0.179198786616 303:0.0164173152298 304:0.113858610392 305:0.224856719375 306:0.119447745383 307:0.00175106280949 308:0.502749443054 309:0.0211903247982 310:0.10402187705 311:0.0539250262082 313:1.23824834824 315:0.206468835473 316:0.157589107752 317:0.259588599205 318:0.360712975264 319:0.32224085927 320:0.101983241737 321:0.112758204341 322:0.0398070253432 324:0.00968384090811 325:0.00399255985394 326:0.0170424412936 327:0.337189227343 329:0.446318179369 330:0.189274102449 331:0.121964149177 333:0.382016181946 334:0.0687781646848 335:0.073738232255 336:0.286575645208 337:0.260450929403 338:0.056763716042 339:0.199569270015 340:0.453582257032 342:0.0649102851748 343:0.681906163692 344:0.474290341139 345:0.0272121578455 346:0.184176653624 347:0.0358001068234 348:0.302169144154 349:0.489937901497 350:0.0213994141668 352:0.139624580741 353:0.0688655301929 354:0.0512890070677 355:0.33595687151 356:0.0496733114123 357:0.0175755675882 360:0.631542682648 363:0.364536732435 364:0.0316358245909 365:0.270494908094 366:0.0573323629797 367:0.00665542064235 368:0.00066430674633 369:0.00289798900485 370:0.03555219993 371:0.0158854052424 372:0.00245743617415 373:0.15005235374 374:0.0164275541902 375:0.106761500239 377:0.0666322335601 378:0.163182124496 379:0.656191587448 381:0.147773906589 382:0.267255276442 384:0.310474812984 386:0.040466196835 387:0.0626005977392 388:0.308515042067 389:0.0177037864923 391:0.0111001534387 392:0.0471364408731 393:0.115802370012 396:0.405425071716 397:0.065975561738 398:0.237300902605 400:0.00159799912944 401:0.322824597359 402:0.361776769161 403:0.0907334089279 404:0.977600693703 405:1.61969363689 406:0.127787917852 407:0.373398631811 408:0.30333340168 409:0.00344977900386 410:0.0759592205286 411:0.129744127393 412:0.371717482805 413:0.234079867601 414:0.0145300282165 415:0.0484517030418 416:0.00139795569703 417:0.0886223316193 418:0.0819459408522 419:0.15537416935 420:0.520494282246 421:0.107225768268 423:0.0438003987074 426:0.00251569971442 427:0.0811288058758 428:0.267593801022 430:0.959220468998 432:0.119141831994 433:0.0549238063395 434:0.0555399097502 435:0.0177475679666 436:0.0906792357564 437:0.0239611454308 439:0.37060329318 440:0.0335985608399 441:0.103805102408 442:0.0230758674443 443:0.134389951825 444:0.0526566877961 445:0.264519751072 446:1.58159029484 447:0.156886816025 448:0.00285288249142 449:0.043811827898 451:0.0860426276922 452:0.639459013939 453:0.349133789539 454:0.392006695271 455:0.0217174217105 456:0.054550524801 457:0.000267723342404 458:0.0637632533908 459:0.0252689383924 460:0.0887470394373 462:0.0948882773519 463:0.261358231306 464:0.0987343788147 465:0.134680852294 467:0.16685320437 468:0.111796930432 469:0.0555088445544 470:0.0711847394705 471:1.02812063694 472:0.225336149335 473:0.047629583627 474:0.00729183480144 475:0.0977200642228 476:0.0275813229382 477:0.0228485837579 478:0.0834922790527 479:0.280627161264 480:0.243450835347 481:0.419443070889 482:0.223175510764 484:0.215129464865 486:0.0472444780171 487:0.618001759052 488:1.13930809498 489:0.0264421589673 491:0.113003641367 492:0.177715301514 494:0.00145679467823 495:0.960217297077 496:0.208102762699 497:0.12724968791 498:0.0527601465583 499:0.952366650105 500:0.016624160111 501:0.0264660716057 502:0.0955496579409 503:0.228214770555 504:0.0693570747972 505:0.410245835781 506:0.0706011727452 508:0.0173026397824 510:0.00540249189362 512:0.862251579762 
0.7001824941014642 0 0 0 1:0.0157758351415 2:0.00189529266208 3:0.0782568901777 5:0.00345358299091 6:0.0669309869409 7:0.125406727195 8:0.599961221218 9:0.0756992921233 10:0.0703757330775 11:0.00146270764526 12:1.21772456169 13:0.124845661223 14:0.053411219269 15:0.121200479567 16:0.198980331421 19:0.0732414349914 20:0.111851610243 21:0.891642153263 22:0.172751441598 23:0.164687857032 24:0.488170623779 25:0.529415309429 26:0.344345331192 27:0.168361917138 28:0.0832901746035 29:0.0611466094851 30:0.301737904549 31:0.00934698712081 32:0.426836133003 33:0.155266880989 34:0.149434730411 35:0.0503855273128 36:0.104516796768 37:0.236466616392 38:0.456538766623 39:0.684013068676 40:0.0622884780169 41:0.0962160155177 43:0.148775473237 44:0.16497156024 45:0.0823929458857 47:0.628346502781 48:0.785772323608 49:0.0291070714593 50:0.543861210346 51:0.26182731986 52:0.414914429188 53:0.00716197863221 54:0.902703404427 55:0.0813637524843 56:0.0254130400717 57:0.219199195504 60:0.0588350370526 61:0.0903252735734 62:0.0276515129954 63:0.0154703706503 64:0.668826162815 65:0.394333511591 66:0.367683529854 67:0.0264929793775 68:0.0756559222937 69:0.0717320814729 70:0.260429412127 72:0.0059351362288 73:0.96459633112 74:1.44784045219 75:0.00585285015404 76:0.147081911564 77:0.0194438174367 78:0.192319184542 79:0.0513056106865 80:0.134564578533 81:0.031303435564 82:0.741471350193 83:0.74659460783 85:0.0782900229096 86:0.19087049365 87:0.453415364027 88:0.0316884480417 89:0.235164999962 90:0.124017208815 91:0.789692044258 92:0.576947391033 93:0.0171890612692 94:0.166824668646 95:0.0937950089574 96:0.0223735589534 97:1.12640070915 98:0.232213035226 99:0.101159356534 100:0.0431287959218 101:0.0548544228077 102:0.61577296257 103:0.359784305096 104:0.513258457184 106:0.00442329468206 107:0.143011674285 108:0.0262848734856 109:0.117200404406 110:0.0763967856765 111:0.0191737487912 112:0.915895044804 114:0.550380170345 115:0.0690829083323 117:0.320978015661 118:0.0117710437626 119:0.00219320156612 120:0.221295952797 121:0.0259761903435 122:0.111570999026 124:0.1125639081 125:0.148268193007 126:0.127557873726 128:0.101122282445 129:0.165518462658 131:0.0874416679144 132:0.0885856673121 133:0.148403093219 134:0.0416577346623 135:1.08383357525 136:0.191304013133 137:0.258753240108 138:0.695544958115 139:0.173711776733 140:0.0763962566853 141:0.0537325702608 142:0.272384524345 143:0.716017246246 144:0.116877630353 145:0.0459526777267 146:0.00296175782569 147:0.600268125534 148:0.184150755405 149:0.0575710386038 150:0.0275423377752 151:0.137138620019 152:0.0881847143173 153:0.0557219907641 154:0.0205523651093 155:0.023731995374 156:0.330174028873 157:0.167040318251 158:0.211047545075 159:0.213589116931 160:0.11273689568 161:0.336767226458 162:0.27008742094 163:0.202811509371 164:0.0570721402764 165:0.0292826108634 166:0.217370927334 168:0.259335070848 169:0.123470135033 170:0.0653838515282 171:0.947775542736 172:0.0415355376899 174:0.562540531158 175:0.0603507682681 176:0.657047510147 177:0.00434882985428 178:0.0241196788847 179:0.0156937371939 180:0.0927029624581 181:0.824529349804 182:0.0944955199957 183:0.191963359714 184:0.0538403913379 185:0.090210288763 186:0.111166581511 187:0.051754552871 188:0.205423042178 189:0.0654082298279 190:0.587374806404 191:0.889796733856 192:0.192194402218 193:0.0333465747535 194:0.00724785448983 195:0.0273089744151 196:0.0346619673073 197:0.128710269928 198:0.376670092344 199:0.273346751928 200:0.0734081342816 201:0.0396568365395 202:0.747118651867 203:0.357877105474 204:0.631993830204 205:0.111523486674 206:1.07676839828 208:0.0314032100141 209:0.183495610952 210:0.2894282341 211:0.000761443923693 212:0.830062747002 213:0.0528122037649 214:0.0912818983197 215:0.11908826977 216:0.608867526054 218:0.0803276523948 219:0.468063890934 220:0.155824810266 223:0.224145710468 224:0.117852665484 225:0.0336318947375 226:0.0289224237204 227:0.0258363671601 228:0.102073743939 229:0.0121147558093 232:0.275638341904 233:0.0555982291698 234:0.0341114141047 235:0.000916551332921 236:0.0362014919519 237:0.266500890255 238:0.0589481666684 239:0.0745185688138 241:0.206797212362 242:0.243413612247 243:0.00270129228011 244:0.0475444048643 245:0.364547371864 246:0.233614876866 247:0.129050329328 248:0.0939366742969 249:0.238224029541 250:0.365709453821 251:0.0671038776636 252:0.0726910531521 253:0.0174864679575 254:0.12762004137 255:0.0259591210634 256:0.104823224247 257:0.228048413992 258:0.0691066086292 259:0.260396689177 260:0.283540427685 261:0.0876155942678 262:0.298886656761 263:0.0169904902577 264:0.127366781235 265:0.346946120262 266:0.0122609389946 267:0.0932794287801 268:0.167965129018 269:0.00467196060345 270:0.306159436703 271:0.0541910044849 272:0.0573585852981 274:0.00704711163417 275:0.367648482323 276:0.133229583502 277:0.96942961216 278:0.304538667202 280:0.0985490903258 281:0.0225773844868 282:0.0468976683915 283:0.222321674228 284:0.414523750544 285:1.147798419 286:0.0763069242239 287:0.0568968132138 288:0.0337377078831 289:0.0736009702086 290:0.149249479175 291:0.111687630415 292:0.153277039528 293:0.189639046788 294:0.0306138638407 295:0.163226798177 296:0.178815484047 297:1.06524276733 298:0.131436780095 299:0.481034964323 300:0.00681778835133 301:0.190895959735 302:0.271923989058 303:0.0730496793985 304:0.105703875422 305:0.0869311094284 306:0.244347006083 307:0.0529272407293 308:0.751131772995 309:0.109798789024 310:0.0176506247371 311:0.0125015797094 312:0.0111767053604 313:0.572502851486 316:0.538564622402 317:0.314287692308 318:0.0699234306812 319:0.0618836097419 320:0.0664715915918 321:0.00543002132326 324:0.254439651966 325:0.151104420424 326:0.14665620029 327:0.14384020865 328:0.035647649318 329:0.503345787525 330:0.137084856629 333:0.121580429375 334:0.034965313971 335:0.103777095675 336:0.218835353851 337:0.354786574841 338:0.178467214108 339:0.3363725245 340:0.273510247469 341:0.00291353813373 342:0.239544063807 343:1.16420543194 344:0.666500091553 346:0.289270848036 347:0.0168467145413 348:0.13873256743 349:0.22362972796 350:0.254602342844 352:0.481934726238 353:0.00403458578512 354:0.221001893282 355:0.284481406212 356:0.0706470608711 357:0.0431619510055 358:0.0326615646482 359:0.00468374369666 360:0.523868858814 362:0.295945852995 363:0.112351097167 365:0.171833634377 366:0.142627164721 367:0.436470866203 368:0.0591519214213 369:0.00168708479032 370:0.0291022900492 371:0.0593955926597 372:0.21906478703 373:0.199474215508 375:0.00396295730025 376:0.196525216103 377:0.140116423368 378:0.83882856369 379:0.869356334209 380:0.0442456565797 381:0.0251764375716 382:0.177423730493 383:0.0400325655937 384:0.0830281227827 385:0.147328019142 386:0.657553195953 387:0.252754569054 388:0.0038428902626 389:0.183569669724 391:0.0186178665608 392:0.0686383545399 393:0.133300036192 395:0.00257743126713 396:0.255666136742 397:0.0585961900651 398:0.345571011305 400:0.979927480221 401:0.644927322865 402:0.478377908468 403:0.0605302155018 404:0.875237286091 405:0.514975845814 406:0.0972041711211 407:0.603476166725 410:0.14307191968 411:0.142293542624 412:0.247688874602 413:0.255304455757 414:0.318049162626 415:0.0250323545188 417:0.00887738633901 418:0.229476898909 419:0.219235226512 420:1.13788473606 421:0.00150984700304 422:0.232836470008 423:0.488706707954 426:0.0467441491783 427:0.0609759166837 428:0.230875268579 430:1.39541685581 431:0.0399653911591 432:0.0840877890587 433:0.101940967143 434:0.0260067619383 436:0.180275976658 437:0.0219873059541 439:0.582638204098 440:0.00764123024419 441:0.155147880316 442:0.0361238494515 443:0.208201661706 444:0.189979493618 445:0.156027361751 446:1.3010931015 447:0.0868739709258 448:0.0238573867828 449:0.0556245222688 451:0.00121329270769 452:0.958727002144 453:0.180445104837 454:0.522950947285 455:0.0941284671426 456:0.456266790628 457:0.208711072803 458:0.00446688011289 459:0.0112304780632 460:0.0575994513929 461:0.035091932863 462:0.159689262509 463:0.358501344919 464:0.225084900856 465:0.146303683519 467:0.0476111285388 468:0.0566359236836 469:0.0702340379357 470:0.0111500937492 471:1.25646471977 472:0.621058821678 473:0.0407657884061 474:0.0453101955354 475:0.388267815113 476:0.0824036747217 477:0.00889885984361 478:0.409193307161 479:0.389220327139 480:0.144589096308 481:0.150421544909 482:0.133125439286 483:0.0401605777442 484:0.217303365469 485:0.0266540087759 486:0.196187615395 487:0.13821876049 488:0.50374430418 489:0.0463981181383 490:0.0270553473383 491:0.236883506179 492:0.0108336666599 493:0.00827490817755 494:0.0477713122964 495:0.401832342148 496:0.163662418723 497:0.0664606392384 498:0.192005798221 499:0.360354423523 501:0.0675730109215 502:0.00448795733973 503:0.264701813459 504:0.631442606449 505:0.799459338188 506:0.0174766723067 507:0.132264688611 508:0.0623677968979 509:0.0120736770332 510:0.0353307314217 511:0.0270641334355 512:0.34693479538 
0.5659221311741389 0 0 0 1:0.0458547659218 3:0.0195694547147 6:0.075146086514 7:0.223617628217 8:1.04478144646 9:0.00827900972217 10:0.2002607584 12:0.832307159901 13:0.254390954971 14:0.0672587826848 15:0.191078066826 16:0.0138917844743 18:0.203651294112 19:0.052114918828 20:0.110333062708 21:0.482699245214 22:0.0863471478224 23:0.0204677805305 25:1.01708614826 26:0.665079057217 27:0.114434562624 28:0.237477257848 29:0.0542737878859 30:0.109102740884 31:0.0967712551355 32:0.813936889172 33:0.164944604039 34:0.294335335493 35:0.0673608109355 36:0.00694214552641 37:0.418952345848 38:1.31658995152 39:0.862090528011 40:0.000951871916186 41:0.0960024222732 43:0.147796198726 44:0.0888904258609 45:0.000505841511767 46:0.166848495603 47:0.665250003338 48:0.715722024441 49:0.0303612574935 50:0.127202570438 51:0.118569709361 52:0.5581381917 53:0.0320782251656 54:0.829610526562 55:0.0193529613316 56:0.0262556225061 57:0.163024544716 60:0.145098343492 61:0.0045711081475 63:0.0474371835589 64:0.643982946873 65:0.514466702938 66:0.0330866500735 67:0.0599511861801 68:8.21899375296e-05 69:0.209757685661 70:0.330349385738 73:0.377375930548 74:1.33981192112 75:0.088719829917 76:0.732750415802 78:0.0124842403457 79:0.00621763570234 80:0.0318398363888 81:0.0119159594178 82:0.0797359123826 83:0.556500852108 85:0.137900829315 86:0.360840678215 87:0.832021415234 88:0.0477552935481 89:0.318883448839 90:0.0595746524632 91:0.837461948395 92:0.765650510788 93:0.0860705673695 94:0.273595541716 95:0.214177295566 96:0.0535277500749 97:1.01351392269 98:0.0180220324546 100:0.102569907904 101:0.200701132417 102:1.08526980877 103:0.161047324538 104:0.475686520338 105:0.00282434537075 106:0.0153010571375 107:0.267354935408 109:0.0979203805327 110:0.0662987232208 112:0.722961723804 114:0.485379189253 115:0.228705853224 116:0.0710348263383 117:0.287027865648 118:0.072560466826 119:0.0791806057096 120:0.034332614392 121:0.114344023168 122:0.335076332092 123:0.0436572209001 124:0.0333687365055 125:0.0649198889732 126:0.0338680557907 128:0.134427890182 129:0.0182858835906 131:0.0537468753755 132:0.111498497427 133:0.613875031471 134:0.00787141919136 135:0.75170725584 136:0.0141755547374 137:0.0920452401042 138:0.714979171753 139:0.0728981271386 140:0.160836026073 141:0.00050092471065 142:0.456229031086 143:0.314641624689 144:0.0660932809114 145:0.0921877250075 146:0.0754333809018 147:0.247805371881 148:0.0898467674851 149:0.0282223075628 150:0.0537034533918 151:0.0982996672392 152:0.0488473549485 153:0.164123237133 154:0.0564770400524 155:0.00591871188954 156:0.0557245723903 157:0.319434732199 158:0.223656117916 159:0.0407450199127 160:0.11411613971 161:0.37817081809 162:0.130449056625 163:0.142175480723 165:0.0288815293461 166:0.453131467104 167:0.014036655426 168:0.0743366926908 169:0.152757480741 170:0.00591378286481 171:0.712379992008 172:0.026542019099 174:0.134304687381 175:0.104812778533 176:0.329997628927 177:0.0738259330392 178:0.192796677351 179:0.166338294744 180:0.0895184576511 181:0.522375285625 182:0.10069103539 183:0.372622102499 184:0.180389344692 185:0.0238387528807 186:0.363889366388 187:0.154667153955 188:0.234718978405 189:0.376474946737 190:0.614151299 191:0.478978484869 192:0.176671370864 194:0.0488970093429 195:0.201568365097 196:0.00309951929376 197:0.00435132160783 198:0.288837313652 199:0.0297034811229 200:0.265166342258 201:0.132468089461 202:0.146675795317 203:0.191363215446 204:0.0463376417756 205:0.371774315834 206:0.61381816864 208:0.0378641039133 209:0.0210408624262 210:0.601820588112 211:0.161369696259 212:0.457998007536 214:0.0228090565652 215:0.0421959161758 216:1.07941579819 217:0.0172973591834 218:0.113026537001 219:1.06141984463 220:0.121483139694 221:0.111352428794 223:0.437270641327 224:0.0539335086942 225:0.0238776877522 226:0.0416654236615 227:0.00729603227228 228:0.0586124137044 229:0.0979838147759 230:0.0111198229715 232:0.794038712978 233:0.000250177719863 234:0.0668534114957 235:0.0210855007172 236:0.226017400622 237:0.0633145496249 238:0.261856645346 239:0.0315462425351 241:0.0468241535127 242:0.0557262897491 243:0.0203841160983 244:0.0351282022893 245:0.333179503679 246:0.159378662705 247:0.0787859410048 248:0.302961349487 249:0.019883736968 250:0.445308685303 252:0.0631958171725 254:0.0404370129108 255:0.0464822500944 256:0.0800170078874 257:0.0296251326799 258:0.0305824708194 260:0.466223090887 261:0.13053381443 262:0.470470964909 263:0.0285130813718 264:0.0413548871875 265:0.216995611787 268:0.101602785289 270:0.0369165949523 271:0.0283499285579 272:0.0895769447088 273:0.0327867642045 274:0.00973281636834 275:0.298682391644 276:0.0830620452762 277:0.636472404003 278:0.0956276059151 279:0.0186698772013 280:0.0599316433072 281:0.0133894942701 282:0.0359562560916 283:0.169437557459 284:1.56668555737 285:0.605904877186 286:0.189487323165 287:0.033902682364 288:0.199571222067 289:0.136522039771 290:0.102705933154 291:0.257451474667 292:0.167469292879 293:0.170352712274 295:0.458289593458 296:0.267343312502 297:1.30768966675 298:0.0908410847187 299:0.654034972191 300:0.0554535537958 301:0.0939717963338 302:0.205126270652 303:0.157255366445 304:0.0761210694909 305:0.094146952033 306:0.267946302891 308:0.970963656902 309:0.0667198300362 310:0.0311470124871 312:0.208452120423 313:0.388072520494 314:0.0532559081912 316:0.266873687506 317:0.0875870063901 320:0.0155791100115 322:0.084316663444 323:0.0328289531171 324:0.0204556323588 325:0.151917025447 326:0.0783005133271 327:0.186043247581 328:0.0400493368506 329:0.802372515202 330:0.0488150902092 331:0.0161089133471 333:0.134975373745 334:0.000303756562062 335:0.0174824222922 336:0.0424923188984 337:0.0469530560076 338:0.0573249906301 339:0.437570393085 340:0.534816801548 342:0.109911680222 343:1.06044232845 344:0.570310592651 346:0.457252889872 348:0.254335790873 349:0.162644818425 350:0.0132640814409 352:0.0840093120933 353:0.0401252508163 354:0.727032542229 355:0.248445123434 356:0.0577108003199 357:0.00229022023268 358:0.081569865346 359:0.0440802574158 360:0.212207853794 362:0.0541484877467 363:0.221163570881 364:0.0136890700087 365:0.12547364831 366:0.124988473952 367:0.164825558662 368:0.0622454248369 369:0.165063560009 370:0.0241273716092 371:0.0855714976788 372:0.440834850073 373:0.22944444418 374:0.00794719625264 376:0.329654812813 377:0.0384117439389 378:0.762629747391 379:0.724345386028 380:0.0293196048588 382:0.0911885872483 383:0.181174978614 385:0.0270962230861 386:1.10194718838 387:0.117420181632 388:0.0717300996184 389:0.198912143707 391:0.177844643593 392:0.20629838109 393:0.0777510181069 396:0.01799727045 397:0.119870513678 398:0.0534702017903 400:0.357777714729 401:0.212296545506 402:0.474984049797 403:0.053614474833 404:0.743047058582 405:0.480495065451 406:0.0817621275783 407:0.419022738934 408:0.00306323822588 410:0.457363188267 411:0.0727495327592 412:0.232801064849 413:0.135694667697 414:0.656758725643 415:0.0733879208565 417:0.0154788931832 418:0.0618870891631 419:0.334068566561 420:0.469881892204 421:0.126397624612 422:0.101517520845 423:0.686036407948 424:0.0245189946145 425:0.0557128600776 427:0.202455744147 428:0.437982678413 429:0.0959389209747 430:1.66689622402 431:0.0137467514724 432:0.266976892948 436:0.0964741334319 437:0.154425442219 439:0.0473529659212 440:0.000984965940006 441:0.0398605577648 443:0.329710036516 444:0.0503995344043 445:0.352335035801 446:0.719985544682 447:0.0393256954849 448:0.0810647159815 449:0.0101472139359 450:0.152794599533 452:0.924540102482 453:0.668109357357 454:0.226694941521 455:0.0677765160799 456:1.00532889366 457:0.108121208847 459:0.025360878557 460:0.0356426946819 461:0.0437116026878 462:0.128488734365 463:0.26260137558 464:0.142038583755 465:0.124010719359 466:0.018114566803 467:0.264390587807 468:0.129273116589 469:0.0393785238266 470:0.28087964654 471:1.09632360935 472:0.20454390347 473:0.360929906368 474:0.055470328778 475:0.225612699986 477:0.00241949106567 478:0.266525238752 479:0.0821953117847 480:0.220995679498 481:0.27597284317 482:0.167432546616 483:0.0167747754604 484:0.0854737311602 486:0.373982310295 487:0.127113983035 488:0.242760434747 489:0.136833459139 490:0.0145314177498 491:0.139768287539 493:0.0792775452137 494:0.170510053635 495:0.54872906208 496:0.185339570045 497:0.178028523922 498:0.288513183594 499:0.724918484688 501:0.110915757716 503:0.266106009483 504:0.685681521893 505:1.16031801701 507:0.092518016696 508:0.103961244226 509:0.452199727297 510:0.0376814119518 512:0.063837364316 
1 0 0 0 1:0.114606685936 3:0.05069289729 5:0.00551730021834 6:0.192141801119 7:0.160330846906 8:0.636578202248 9:0.000793870596681 10:0.279022693634 12:0.632942736149 13:0.0427073016763 14:0.00482348538935 15:0.0140822054818 16:0.0155819505453 17:0.00322087807581 18:0.0974943265319 19:0.0624788813293 20:0.109284572303 21:0.14380915463 22:0.300349742174 23:0.0586484186351 24:0.0908770412207 25:0.0232755616307 26:0.219110250473 27:0.12098275125 28:0.22292983532 29:0.0471433773637 30:0.299324601889 31:0.0634727105498 32:1.00678300858 33:0.381636857986 34:0.957348644733 35:0.00631433119997 37:0.122025214136 38:1.56180238724 39:0.938935995102 40:5.25257310073e-05 41:0.187179848552 44:0.0376130640507 45:0.0582942329347 47:0.765179693699 48:0.266312211752 49:0.0303318668157 50:0.274789005518 51:0.0248177722096 52:0.379796087742 53:0.0937217846513 54:0.492715448141 55:0.00702949194238 56:0.142754361033 59:0.0438356772065 60:0.0351526886225 61:0.131740227342 62:0.0556513369083 64:0.998933434486 65:0.379219800234 66:0.0861635655165 67:0.0762762650847 68:0.0409755632281 69:0.233881115913 70:0.370735317469 73:0.624712407589 74:1.0975934267 76:0.190086141229 78:0.109794951975 80:0.0560950934887 81:0.0145854949951 82:0.177417144179 83:0.918782413006 85:0.174398228526 86:0.348255813122 87:1.03931677341 88:0.0228660665452 89:0.335605174303 90:0.0358259566128 91:0.597063720226 92:0.77201384306 93:0.00625151256099 94:0.253420382738 95:0.0764349773526 96:0.0590699501336 97:0.976009428501 98:0.0223501473665 100:0.0934548079967 102:1.38053703308 103:0.33188995719 104:0.628027915955 105:0.0217022988945 106:0.0168067477643 107:0.6514082551 108:0.0101735834032 109:0.013158287853 110:0.00532167637721 111:0.00435858732089 112:0.352534115314 114:0.0231985989958 115:0.283723682165 116:0.0201291516423 117:0.156649276614 118:0.0224883388728 120:0.203690931201 121:0.0181782785803 122:0.0533414743841 124:0.0356549955904 125:0.198424488306 126:0.0502185821533 128:0.12209226191 129:0.0706586912274 131:0.00710553303361 132:0.169559150934 133:0.278488844633 134:0.112233527005 135:0.65275812149 136:0.222226470709 137:0.296446144581 138:0.316330313683 140:0.010671726428 141:0.0276593770832 142:0.640093386173 143:0.778988242149 144:0.00295712263323 145:0.00551472324878 146:0.0133694969118 147:0.41716042161 148:0.0210631433874 150:0.0021210568957 151:0.078271895647 152:0.00813777931035 153:0.156288400292 154:0.0157831013203 156:0.238958746195 157:0.0594345405698 158:0.594187259674 159:0.019201926887 160:0.111657314003 161:0.0515876114368 163:0.0557911321521 164:0.00150960986502 165:0.00431694276631 166:0.373221755028 168:0.0119189918041 169:0.145089462399 170:0.0247082095593 171:0.720819592476 174:0.394233852625 175:0.0187036078423 176:0.341099023819 177:0.0420871861279 178:0.0226961895823 179:0.0581982918084 180:0.0658264458179 181:1.01690196991 182:0.0826025605202 183:0.0247269868851 184:0.0168068408966 185:0.00800259038806 186:0.238216221333 187:0.191497549415 188:0.148727878928 189:0.239154070616 190:0.170834988356 191:0.669689416885 192:0.0859913304448 193:0.455873280764 194:0.00398183101788 197:0.000102109821455 198:0.271864444017 199:0.133695289493 200:0.0722860768437 201:0.0103014158085 202:0.367820620537 203:0.571077167988 204:0.0843693986535 205:0.00756275746971 206:0.449204772711 207:0.00114846194629 209:0.0434637889266 210:0.135656237602 211:0.00630817329511 212:0.335694313049 213:0.0448397547007 214:0.0979069769382 215:0.114201009274 216:0.920374929905 217:0.00252680620179 218:0.148260623217 219:1.00464308262 220:0.00165130454116 222:0.0342843718827 223:0.0889574363828 224:0.119730353355 225:0.0530911795795 228:0.00644867820665 229:0.115410231054 232:0.56919914484 234:0.151413232088 235:0.0872707441449 236:0.152875438333 237:0.111196227372 238:0.296634048223 239:0.0196803342551 240:0.00041228349437 241:0.234462603927 242:0.312495917082 243:0.000474458996905 245:0.537870168686 246:0.0274690315127 247:0.289314687252 248:0.0851490646601 249:0.013962443918 250:0.221960961819 252:0.0686501115561 253:0.0210336279124 255:0.0189882013947 256:0.0684167221189 257:0.176724851131 258:0.0010312309023 259:0.0352600589395 260:0.0223383381963 261:0.0366994962096 262:0.345409035683 263:0.172776862979 264:0.033287961036 265:0.736455261707 268:0.0568021163344 270:0.225039809942 271:0.0578053407371 272:0.0360659509897 275:0.476321607828 276:0.0416169539094 277:1.08374524117 278:0.12451864779 280:0.0433936603367 282:0.0113914385438 283:0.10964743793 284:1.21970891953 285:0.674417197704 286:0.0816425085068 287:0.0317564643919 288:0.0122318631038 289:0.024862786755 290:0.140072911978 291:0.176127493382 292:0.254238247871 293:0.0569578967988 295:0.968656420708 296:0.209253534675 297:0.654223442078 298:0.0702857896686 299:0.505486667156 300:0.0208287015557 301:0.00883748102933 302:0.440482765436 303:9.93926732917e-05 304:0.116390459239 305:0.0636758878827 306:0.0834388062358 307:0.0144246900454 308:0.870403826237 309:0.0707683116198 310:0.139327779412 312:0.0968356505036 313:0.309018105268 314:0.0313360840082 316:0.26456707716 317:0.133409842849 318:0.102643720806 319:0.211601063609 320:0.00973535049707 321:0.0395396836102 324:0.0344214066863 325:0.0510077252984 326:0.057011641562 327:0.274929016829 329:0.219864472747 330:0.0567726492882 333:0.247629866004 334:0.00207270868123 335:0.00259211170487 336:0.131616383791 337:0.330179095268 338:0.0669044777751 339:0.57068836689 340:0.562019407749 342:0.101837448776 343:1.57775437832 344:0.395011156797 346:0.153380513191 347:0.0495274141431 348:0.15036791563 349:0.171519979835 350:0.160508751869 352:0.151997447014 353:0.00487999012694 354:0.104796290398 355:0.306096643209 356:0.0197268594056 357:0.000557480263524 358:0.0577228702605 360:0.414185136557 361:0.0119289057329 362:0.00306499004364 363:0.00335502577946 365:0.00333883566782 366:0.0527941733599 367:0.1803753227 368:0.0529487617314 369:0.100106149912 370:0.0088261924684 371:0.038678150624 372:0.0840567424893 373:0.119902104139 374:0.0209904853255 375:0.0184003058821 376:0.183930724859 377:0.0883595645428 378:0.998076736927 379:1.03180968761 380:0.00462449062616 381:0.225969031453 382:0.2648422122 383:0.00782037712634 384:0.0606341660023 385:0.00251016695984 386:0.632279157639 387:0.168933346868 388:0.0602428130805 389:0.0962104648352 390:0.00700680306181 392:0.000358867022442 393:0.0348902903497 395:0.0113572739065 396:0.114131398499 397:0.0185831859708 398:0.0789579600096 400:0.0832315385342 401:0.482485353947 402:0.785984396935 403:0.0935121849179 404:0.310820162296 405:0.269386708736 406:0.0923281759024 407:0.213180065155 409:0.0108213759959 410:0.32058724761 411:0.10278082639 412:0.141965150833 413:0.141528114676 414:0.236374408007 415:0.0479001104832 418:0.081001855433 419:0.0440739877522 420:0.653544664383 421:0.0114859705791 422:0.158105656505 423:0.450755506754 426:0.255696296692 427:0.617205262184 428:0.0309117268771 430:0.568862378597 431:0.00499576935545 432:0.180670574307 434:0.0669685974717 436:0.0362366996706 437:0.0116111589596 439:0.373844951391 441:0.177884981036 442:0.00872411113232 443:0.620080709457 445:0.551542758942 446:1.22791516781 448:0.0212697926909 449:0.185173600912 450:0.0103417923674 452:0.52635216713 453:0.170899525285 454:0.302021205425 455:0.0577284246683 456:1.17156481743 457:0.0524018369615 459:0.111297100782 460:0.0463088266551 462:0.0938010662794 463:0.379032194614 464:0.00339246727526 465:0.0611429400742 468:0.0104421339929 469:0.0823951214552 470:0.124845921993 471:1.45453047752 472:0.19458116591 473:0.0108115430921 474:0.377718597651 475:0.0256741959602 478:0.163419440389 479:0.503615558147 480:0.221149086952 481:0.115275487304 482:0.0235992390662 483:0.0255002900958 484:0.230619296432 486:0.0407249294221 488:0.406582832336 489:0.0790353640914 491:0.0550732798874 492:0.107845321298 494:0.0938854515553 495:0.486281007528 497:0.00118391693104 498:0.0940025448799 499:0.411097496748 501:0.209298983216 502:0.00423340545967 503:0.179261341691 504:0.712384343147 505:1.60035002232 506:0.0165901333094 507:0.0375826768577 508:0.0300224553794 509:0.127904132009 510:0.0687233731151 511:0.0187521055341 512:0.161780640483 
0.9497219531239129 0 0 0 1:0.200986281037 2:0.0198386181146 3:0.102667823434 4:0.0556867793202 6:0.0339141190052 7:0.231936573982 8:0.686910629272 9:0.0318250469863 10:0.264160573483 12:1.42850899696 13:0.145337924361 14:0.0611280314624 15:0.0224924571812 16:0.16631822288 19:0.0332073904574 20:0.0455734394491 21:0.726496756077 22:0.161889255047 23:0.180274963379 24:2.84918427467 25:0.846113860607 26:0.44880631566 30:0.0506287291646 31:0.210824742913 32:0.450425982475 33:0.0200048163533 34:0.0191626343876 37:0.0427818484604 38:0.206562504172 39:0.271868616343 41:0.0253633428365 43:0.550123333931 44:0.00480934744701 47:0.286873996258 48:0.706040799618 50:0.992805361748 52:0.0135598424822 53:0.699547290802 54:0.596633017063 55:0.0647637024522 57:0.0026620333083 60:0.341977715492 63:0.146143332124 64:0.272304296494 65:0.389639407396 67:0.0232187211514 68:0.0534235239029 69:0.0246219169348 70:5.56902887183e-05 71:0.308920115232 72:0.563009738922 73:0.656924009323 74:0.830270349979 76:1.13135313988 77:0.0218529459089 78:0.067187577486 82:2.3725373745 83:0.00824686232954 86:1.26627969742 87:0.00565883889794 89:0.254896193743 91:1.23689734936 93:0.25822904706 95:0.169500425458 97:0.31848230958 98:1.2994890213 99:0.15648432076 100:0.0766261219978 101:0.131632894278 102:0.195359691978 103:0.0524453520775 104:0.0457149408758 105:0.00302957510576 106:0.0745313838124 107:0.000734035449568 108:0.0513881035149 109:0.012061025016 110:0.0975150465965 112:1.05064189434 113:0.473279058933 114:0.773188889027 115:0.00159565522335 116:0.0738365203142 117:0.0184752773494 119:0.136155813932 120:0.19020780921 121:0.150374650955 122:0.438385337591 125:0.026305153966 126:0.0126169240102 127:0.0224207751453 128:0.0729090198874 132:0.76100975275 133:0.243890091777 135:0.223867163062 136:0.0638099163771 138:0.551909923553 139:0.22886313498 140:0.000913624826353 141:0.106267273426 142:0.012363307178 143:0.00819903612137 144:0.0662328079343 145:0.00981572177261 147:0.545534312725 148:0.260118812323 149:0.159603983164 150:0.0165885146707 151:0.288647443056 152:0.0385982170701 154:0.661194145679 155:0.0163363963366 157:0.435286134481 158:0.0277127865702 160:0.00395966880023 161:0.110789217055 162:0.217744633555 163:0.200209692121 164:0.105819031596 167:0.186314895749 169:0.0103712370619 170:0.105596385896 171:0.677587449551 173:0.000196756140213 174:0.111752569675 175:0.0481444969773 176:1.53276026249 178:0.345509827137 179:0.00459050387144 180:0.0416584461927 181:0.342669963837 183:0.327556222677 184:0.348401904106 185:0.0963644683361 186:0.358641475439 187:0.0601309798658 188:0.0510708093643 189:0.0160191487521 190:0.266877025366 191:0.0481685958803 192:0.0099067883566 193:0.000749721832108 194:0.00942942500114 195:0.641879320145 196:0.0115573359653 199:0.0664323344827 200:0.0410378612578 201:0.732879340649 202:0.396370708942 203:0.0541457273066 204:0.00669621117413 205:0.35161113739 206:0.712533056736 208:0.148689568043 209:0.473653465509 210:0.45054718852 211:0.0183578450233 212:0.233200073242 214:0.0403610132635 216:0.719204246998 218:0.0095223383978 219:0.380782455206 220:0.152960956097 221:0.100376673043 223:0.196721091866 224:0.0390000976622 225:0.0251766219735 228:0.0291780643165 232:0.350651979446 233:0.128007262945 234:0.0350054614246 237:0.00843583513051 241:0.089848421514 242:0.0157885272056 243:0.0402145124972 245:0.156793326139 246:0.0725540965796 247:0.0020215511322 248:0.0614780411124 249:0.0358564443886 250:0.45557436347 251:0.0295222159475 255:0.0664739906788 256:0.0998278111219 257:0.12934140861 258:0.0366395190358 259:0.0365444235504 260:0.548848807812 261:0.0770619660616 262:0.240074038506 265:0.156617671251 266:0.157427415252 268:0.648258328438 270:0.21542391181 272:0.118542522192 275:1.15257489681 276:0.0260893609375 278:0.00838743057102 279:0.043641615659 280:0.057336397469 281:0.200511902571 282:0.0796348527074 283:0.127779260278 284:0.80303144455 285:0.272125661373 286:0.413572579622 287:0.0233288239688 288:0.900679290295 289:0.0830369666219 290:0.036111138761 291:0.0249942261726 293:0.328645259142 294:0.00349281751551 296:0.334504723549 297:1.15516233444 298:0.0937403067946 299:0.590901613235 301:0.211863294244 302:0.010507508181 303:0.5594394207 304:0.0909993872046 305:0.237648233771 306:0.594754397869 308:0.0654891580343 309:0.0374208316207 310:0.00850199256092 311:0.0480093061924 313:0.0921887233853 315:0.437224209309 316:0.0386638529599 317:0.0813093781471 318:0.592551350594 319:0.160520464182 320:0.00258312164806 321:0.059985909611 322:0.040310677141 327:0.00218901922926 329:0.714401364326 330:0.135138839483 331:0.0685597583652 333:0.33430442214 334:0.0401346422732 335:0.017434662208 336:0.0527025461197 337:0.569776237011 338:0.00371360196732 339:0.0192556846887 340:0.00268017244525 342:0.176223501563 343:0.298551768064 344:0.390777885914 345:0.0387074686587 346:0.000556104001589 349:0.114932268858 352:0.463553607464 353:0.0569680668414 354:0.657624900341 355:0.0271295271814 356:0.499502062798 358:0.0919760838151 360:0.35339140892 361:0.0394704900682 363:0.265355288982 364:0.00107007601764 365:0.0919540897012 366:0.431461393833 368:0.247240066528 370:0.045006506145 371:0.0298215784132 372:0.000553145713639 373:0.120252564549 375:0.00998597964644 378:0.0546573512256 379:0.0561662837863 380:0.0184216443449 381:0.015453459695 383:0.00571225117892 384:0.00640832865611 386:0.692075908184 388:0.144942715764 389:0.037557747215 391:0.502342820168 392:0.289642602205 393:0.126718387008 394:0.0635061264038 396:0.459222942591 398:0.129108771682 399:0.0177820716053 401:0.0694144293666 402:0.0660725533962 403:7.84944713814e-05 404:0.924438536167 405:0.95155620575 406:0.00418519135565 407:0.0294180009514 408:0.0363994576037 409:0.0813084617257 410:0.108808837831 411:0.0484162531793 413:0.039354480803 414:0.357845872641 417:0.0477300472558 418:0.24425688386 419:0.479716807604 420:0.328966408968 421:0.35044670105 422:1.05262923241 423:0.136904329062 424:0.167864233255 426:0.000845929200295 428:0.233251035213 429:0.102854385972 430:1.29469263554 432:0.0215573254973 433:0.0330661125481 434:0.0821179971099 436:0.0361721739173 439:0.0112104024738 440:0.0139972334728 441:0.284305125475 442:0.0282612051815 443:0.0516921132803 444:0.00785193219781 445:0.0103539666161 446:1.28375160694 447:0.0421664565802 448:0.0554870925844 449:0.133857950568 450:0.37788194418 452:0.676574707031 453:1.11951828003 454:0.0294806007296 455:0.00282420869917 456:0.192913115025 458:0.0249124448746 460:0.0940187200904 462:0.309835612774 463:0.0925590917468 464:0.0360168740153 465:0.275500923395 466:0.0175346359611 467:0.123071193695 468:0.10846888274 469:0.0616189464927 470:0.206218242645 471:1.22794640064 472:0.145095273852 473:0.201360598207 474:0.193276792765 475:0.039297554642 477:0.0116541339085 478:0.280507087708 479:0.0965960845351 480:0.398062765598 481:0.30023548007 482:0.17422054708 484:0.00146498077083 485:0.00964048039168 486:0.286363333464 487:0.632663667202 488:0.856653630733 489:0.2615416646 490:0.158082261682 492:0.00469533260912 494:0.054497692734 495:0.527418375015 496:0.45461961627 497:0.332337349653 498:0.0621387399733 499:0.878179252148 503:0.302058279514 504:0.0598357245326 505:0.12529233098 508:0.301691055298 509:0.00284178764559 510:0.255268156528 511:0.0220180302858 512:0.581234157085 
